
\data\
ngram 1=667
ngram 2=1525
ngram 3=1640
ngram 4=1567
ngram 5=1469

\1-grams:
-3.188755	<unk>	0
0	<s>	-0.1955893
-1.2600516	</s>	0
-1.8254298	A	-0.090486065
-2.882719	MYTH	-0.04287737
-1.8449124	IS	-0.09446865
-3.0952268	FANCIFUL	-0.04287737
-3.0952268	EXPLANATION	-0.04287737
-1.4606769	OF	-0.222275
-2.882719	GIVEN	-0.04287737
-3.0952268	PHENOMENON	-0.04287737
-1.352072	THE	-0.081002705
-2.882719	MIND	-0.04287737
-3.0952268	CRAVES	-0.04287737
-2.1922643	FOR	-0.07827321
-3.0952268	KNOWLEDGE	-0.04287737
-3.0952268	CHILD	-0.04287737
-3.0952268	ASKS	-0.04287737
-3.0952268	QUESTIONS	-0.04287737
-2.882719	BECAUSE	-0.04287737
-2.604055	AN	-0.29105654
-3.0952268	INBORN	-0.04287737
-2.882719	DESIRE	-0.28736815
-1.4948943	TO	-0.09993764
-3.0952268	KNOW	-0.04287737
-2.882719	NOW	-0.28736815
-1.654417	AND	-0.06004382
-2.604055	THEN	-0.04287737
-2.7368839	THEY	-0.04287737
-3.0952268	CAME	-0.04287737
-3.0952268	CLOSE	-0.04287737
-3.0952268	ENOUGH	-0.04287737
-3.0952268	SNAP	-0.04287737
-2.604055	AT	-0.04287737
-2.882719	EACH	-0.04287737
-2.7368839	OTHER	-0.04287737
-2.013154	WITH	-0.08481349
-2.2914522	THIS	-0.04287737
-2.882719	MYTHUS	-0.04287737
-3.0952268	PRIMITIVE	-0.04287737
-2.7368839	MAN	-0.04287737
-2.1922643	WAS	-0.08925747
-3.0952268	SATISFIED	-0.04287737
-2.929199	UNTIL	-0.04287737
-2.013154	HIS	-0.07296891
-3.0952268	DEVELOPING	-0.04287737
-3.0952268	INTELLIGENCE	-0.04287737
-2.882719	REALIZED	-0.04287737
-2.929199	ITS	-0.04287737
-3.0952268	INADEQUACY	-0.04287737
-2.604055	SCIENCE	-0.22622766
-2.882719	BORN	-0.04287737
-2.0435474	THAT	-0.059808858
-3.0952268	REALIZATION	-0.04287737
-2.5024788	ONE	-0.04287737
-3.0952268	EYED	-0.04287737
-2.7368839	PEOPLE	-0.04287737
-3.0952268	LIVING	-0.04287737
-1.7393028	IN	-0.23435776
-3.0952268	INDIA	-0.04287737
-2.929199	HAS	-0.04287737
-2.929199	BEEN	-0.04287737
-3.0952268	REPLACED	-0.04287737
-2.2914522	BY	-0.12857983
-3.0952268	ACCURATE	-0.04287737
-3.0952268	INFORMATION	-0.04287737
-2.882719	CONCERNING	-0.28736815
-3.0952268	HINDOOS	-0.04287737
-3.0952268	PRECISELY	-0.04287737
-3.0952268	USE	-0.04287737
-2.4202144	WHICH	-0.1481404
-3.0952268	MYTHS	-0.04287737
-2.2914522	HAVE	-0.08654666
-2.882719	PUT	-0.04287737
-2.1922643	JESUS	-0.0998749
-2.604055	THERE	-0.0995586
-3.0952268	FACULTY	-0.04287737
-3.0952268	FICTION	-0.04287737
-2.0435474	IT	-0.13444248
-3.0952268	THINKS	-0.04287737
-3.0952268	LESS	-0.04287737
-2.929199	THAN	-0.04287737
-3.0952268	GUESSES	-0.04287737
-3.0952268	REFLECTION	-0.04287737
-3.0952268	INTRODUCES	-0.04287737
-3.0952268	BIT	-0.04287737
-2.604055	INTO	-0.124947675
-2.882719	MOUTH	-0.04287737
-3.0952268	IMAGINATION	-0.04287737
-3.0952268	CURBING	-0.04287737
-3.0952268	PACE	-0.04287737
-3.0952268	SUBDUING	-0.04287737
-3.0952268	RESTLESS	-0.04287737
-3.0952268	SPIRIT	-0.04287737
-2.1922643	WE	-0.04287737
-3.0952268	FILL	-0.04287737
-3.0952268	SPACE	-0.04287737
-2.4202144	ABOUT	-0.092327505
-2.882719	OVER	-0.04287737
-2.882719	US	-0.04287737
-3.0952268	SPIRITS	-0.04287737
-2.882719	FAIRIES	-0.04287737
-2.7368839	GODS	-0.04287737
-3.0952268	INVISIBLE	-0.04287737
-3.0952268	AIRY	-0.04287737
-2.882719	BEINGS	-0.04287737
-3.0952268	COVET	-0.04287737
-3.0952268	RAINBOW	-0.04287737
-3.0952268	REACH	-0.04287737
-3.0952268	OUT	-0.04287737
-2.882719	MOON	-0.04287737
-2.5024788	OUR	-0.04287737
-2.882719	FEET	-0.04287737
-2.604055	DO	-0.0995586
-2.0762286	NOT	-0.07521083
-2.882719	REALLY	-0.04287737
-3.0952268	BEGIN	-0.04287737
-3.0952268	TOUCH	-0.04287737
-3.0952268	FIRM	-0.04287737
-3.0952268	GROUND	-0.04287737
-3.0952268	REACHED	-0.04287737
-3.0952268	YEARS	-0.04287737
-3.0952268	DISCRETION	-0.04287737
-2.929199	HAD	-0.04287737
-3.0952268	MATURED	-0.04287737
-3.0952268	GROWN	-0.04287737
-2.929199	UP	-0.04287737
-3.0952268	CREATE	-0.04287737
-3.0952268	CRADLE	-0.04287737
-3.0952268	WOMB	-0.04287737
-2.929199	ALL	-0.124947675
-3.0952268	FAITHS	-0.04287737
-3.0952268	MANKIND	-0.04287737
-3.0952268	SCHOOL	-0.04287737
-3.0952268	BIRTHPLACE	-0.04287737
-2.882719	RELIGION	-0.04287737
-2.882719	DISCUSSION	-0.28736815
-2.882719	SUBJECT	-0.04287737
-1.7889053	I	-0.09982698
-3.0952268	APPEAL	-0.04287737
-3.0952268	MATURE	-0.04287737
-2.0762286	HE	-0.13123615
-3.0952268	MOUTHPIECE	-0.04287737
-1.9329712	NO	-0.06021477
-2.882719	MAY	-0.04287737
-3.0952268	DISAGREE	-0.04287737
-2.2390327	HIM	-0.17433731
-2.604055	ONLY	-0.0998749
-2.882719	WAY	-0.04287737
-3.0952268	COMMAND	-0.04287737
-2.882719	YOUR	-0.04287737
-3.0952268	RESPECT	-0.04287737
-2.604055	BE	-0.07827321
-3.0952268	REASONABLE	-0.04287737
-2.882719	LET	-0.28736815
-3.0952268	PLACE	-0.04287737
-3.0952268	OURSELVES	-0.04287737
-3.0952268	ENTIRELY	-0.04287737
-3.0952268	HANDS	-0.04287737
-2.929199	EVIDENCE	-0.04287737
-2.3510787	AS	-0.08654666
-3.0952268	INTELLIGENT	-0.04287737
-3.0952268	WHETHER	-0.04287737
-3.0952268	WHOSE	-0.04287737
-2.882719	WORSHIP	-0.04287737
-3.0952268	COSTING	-0.04287737
-3.0952268	WORLD	-0.04287737
-3.0952268	MILLIONS	-0.04287737
-3.0952268	PEOPLES	-0.04287737
-3.0952268	MONEY	-0.04287737
-2.5024788	BUT	-0.04287734
-2.882719	ALSO	-0.04287737
-3.0952268	DRAWING	-0.04287737
-3.0952268	SERVICE	-0.04287737
-2.882719	TIME	-0.04287737
-3.0952268	ENERGIES	-0.04287737
-3.0952268	AFFECTION	-0.04287737
-3.0952268	DEVOTION	-0.04287737
-3.0952268	LABOR	-0.04287737
-3.0952268	HUMANITY	-0.04287737
-2.5024788	OR	-0.04287737
-3.0952268	REALITY	-0.04287737
-2.882719	NUMBER	-0.04287737
-3.0952268	DATES	-0.04287737
-2.5024788	WERE	-0.04287737
-3.0952268	OBSERVED	-0.04287737
-3.0952268	CHRISTIAN	-0.04287737
-3.0952268	CHURCH	-0.04287737
-2.882719	VARIOUS	-0.04287737
-3.0952268	TIMES	-0.04287737
-3.0952268	BIRTHDAY	-0.04287737
-3.0952268	GOSPELS	-0.04287737
-2.929199	GIVE	-0.04287737
-3.0952268	DATE	-0.04287737
-2.882719	APPEAR	-0.28736815
-3.0952268	QUITE	-0.04287737
-3.0952268	UNCERTAIN	-0.04287737
-3.0952268	IGNORANT	-0.04287737
-3.0952268	YET	-0.04287737
-2.929199	ON	-0.04287737
-2.882719	DAY	-0.04287737
-2.929199	WHY	-0.04287737
-3.0952268	DISCREPANCY	-0.04287737
-3.0952268	HISTORICAL	-0.04287737
-3.0952268	DOCUMENT	-0.04287737
-3.0952268	SAY	-0.04287737
-2.882719	NOTHING	-0.28736815
-3.0952268	INSPIRATION	-0.04287737
-2.929199	AGAIN	-0.04287737
-2.882719	MATTHEW	-0.04287737
-2.882719	SAYS	-0.04287737
-3.0952268	ESCAPE	-0.04287737
-3.0952268	EVIL	-0.04287737
-3.0952268	DESIGNS	-0.04287737
-3.0952268	HEROD	-0.04287737
-2.882719	MARY	-0.04287737
-3.0952268	JOSEPH	-0.04287737
-3.0952268	INFANT	-0.04287737
-3.0952268	FLED	-0.04287737
-3.0952268	EGYPT	-0.04287737
-3.0952268	LUKE	-0.04287737
-3.0952268	HURRIED	-0.04287737
-3.0952268	FLIGHT	-0.04287737
-3.0952268	NOR	-0.04287737
-3.0952268	HERODS	-0.04287737
-3.0952268	INTENTION	-0.04287737
-3.0952268	KILL	-0.04287737
-3.0952268	MESSIAH	-0.04287737
-3.0952268	WHEN	-0.04287737
-3.0952268	COME	-0.04287737
-2.929199	MORE	-0.04287737
-3.0952268	IMPORTANT	-0.04287737
-3.0952268	CHAPTERS	-0.04287737
-3.0952268	MEET	-0.04287737
-3.0952268	GREATER	-0.04287737
-3.0952268	DIFFICULTIES	-0.04287737
-3.0952268	WHILE	-0.04287737
-3.0952268	ALWAYS	-0.04287737
-2.882719	FRIDAY	-0.04287737
-3.0952268	CRUCIFIXION	-0.04287737
-3.0952268	COMMEMORATED	-0.04287737
-3.0952268	WEEK	-0.04287737
-3.0952268	OCCURS	-0.04287737
-3.0952268	VARIES	-0.04287737
-2.929199	FROM	-0.04287737
-2.882719	YEAR	-0.04287737
-2.929199	GOOD	-0.04287737
-3.0952268	FALLS	-0.04287737
-2.929199	BEFORE	-0.18977956
-3.0952268	SPRING	-0.04287737
-3.0952268	EQUINOX	-0.04287737
-3.0952268	SOON	-0.04287737
-3.0952268	AFTER	-0.04287737
-2.882719	FULL	-0.04287737
-3.0952268	ALLOWS	-0.04287737
-3.0952268	THUS	-0.04287737
-3.0952268	MAKING	-0.04287737
-3.0952268	CALCULATION	-0.04287737
-3.0952268	DEPEND	-0.04287737
-2.882719	UPON	-0.04287737
-3.0952268	POSITION	-0.04287737
-3.0952268	SUN	-0.04287737
-3.0952268	ZODIAC	-0.04287737
-3.0952268	PHASES	-0.04287737
-3.0952268	PAGAN	-0.04287737
-3.0952268	OESTERA	-0.04287737
-3.0952268	BECOME	-0.04287737
-3.0952268	EASTER	-0.04287737
-3.0952268	ABSENCE	-0.04287737
-3.0952268	ORIGIN	-0.04287737
-3.0952268	OFFERS	-0.04287737
-3.0952268	FOLLOWING	-0.04287737
-3.0952268	METAPHYSICAL	-0.04287737
-3.0952268	ARGUMENTS	-0.04287737
-2.929199	AGAINST	-0.04287737
-3.0952268	SCEPTICAL	-0.04287737
-3.0952268	CELSUS	-0.04287737
-2.5024788	IF	-0.08654666
-2.604055	ARE	-0.04287737
-2.882719	ANY	-0.04287737
-3.0952268	MYTHOLOGY	-0.04287737
-3.0952268	SEEMS	-0.04287737
-3.0952268	ARGUE	-0.04287737
-3.0952268	OBJECT	-0.04287737
-3.0952268	ADDING	-0.04287737
-3.0952268	IMMEDIATE	-0.04287737
-3.0952268	COMPANIONS	-0.04287737
-2.7368839	HAND	-0.04287737
-2.882719	MYTHICAL	-0.04287737
-3.0952268	HIMSELF	-0.04287737
-2.5024788	WHO	-0.0998749
-3.0952268	MARK	-0.04287737
-2.882719	JOHN	-0.04287737
-2.929199	PETER	-0.04287737
-2.882719	JUDAS	-0.04287737
-3.0952268	ABSOLUTELY	-0.04287737
-2.882719	EVER	-0.04287737
-3.0952268	EXISTED	-0.04287737
-3.0952268	WENT	-0.04287737
-3.0952268	ROME	-0.04287737
-3.0952268	NEW	-0.04287737
-3.0952268	DOCTRINE	-0.04287737
-2.929199	HOW	-0.04287737
-3.0952268	HISTORIAN	-0.04287737
-2.929199	TAKEN	-0.04287737
-3.0952268	NOTE	-0.04287737
-2.882719	HERE	-0.04287737
-2.882719	SEE	-0.04287737
-2.882719	PRESENCE	-0.04287737
-2.882719	SAW	-0.04287737
-2.929199	THEM	-0.04287737
-3.0952268	PAUL	-0.04287737
-3.0952268	JAMES	-0.04287737
-3.0952268	OCCUPY	-0.04287737
-3.0952268	STAGE	-0.04287737
-3.0952268	ALMOST	-0.04287737
-3.0952268	EXCLUSIVELY	-0.04287737
-2.929199	IMPOSSIBLE	-0.04287737
-3.0952268	EXPLAIN	-0.04287737
-3.0952268	CONTEMPORARIES	-0.04287737
-3.0952268	AUTHORS	-0.04287737
-3.0952268	HISTORIANS	-0.04287737
-3.0952268	TAKE	-0.04287737
-3.0952268	NOTICE	-0.04287737
-2.882719	COULD	-0.04287737
-3.0952268	CONSPIRACY	-0.04287737
-3.0952268	ELSE	-0.04287737
-3.0952268	UNANIMOUS	-0.04287737
-3.0952268	SILENCE	-0.04287737
-3.0952268	ACCOUNTED	-0.04287737
-3.0952268	DECIDE	-0.04287737
-3.0952268	NUMEROUS	-0.04287737
-3.0952268	CANDIDATES	-0.04287737
-2.7368839	DIVINE	-0.04287737
-3.0952268	HONORS	-0.04287737
-3.0952268	SHOULD	-0.04287737
-3.0952268	VOTES	-0.04287737
-2.929199	SUCH	-0.04287737
-2.929199	FAITH	-0.04287737
-2.929199	NEVER	-0.04287737
-2.882719	FREE	-0.04287737
-3.0952268	MAINTAINED	-0.04287737
-3.0952268	SWORD	-0.04287737
-3.0952268	HELL	-0.04287737
-3.0952268	FIRE	-0.04287737
-3.0952268	HEREAFTER	-0.04287737
-3.0952268	MOST	-0.04287737
-3.0952268	UTTERANCES	-0.04287737
-3.0952268	VIRTUALLY	-0.04287737
-3.0952268	GOVERNMENT	-0.04287737
-3.0952268	UNIVERSE	-0.04287737
-3.0952268	COURTIERS	-0.04287737
-3.0952268	PETITIONS	-0.04287737
-3.0952268	PRESS	-0.04287737
-3.0952268	ATTENTION	-0.04287737
-3.0952268	MOREOVER	-0.04287737
-3.0952268	KEEP	-0.04287737
-2.882719	PROMISE	-0.04287737
-2.5024788	WOULD	-0.08958302
-2.882719	TODAY	-0.04287737
-3.0952268	MISERY	-0.04287737
-3.0952268	ORPHANS	-0.04287737
-3.0952268	CHILDLESS	-0.04287737
-3.0952268	MOTHERS	-0.04287737
-3.0952268	SHIPWRECKS	-0.04287737
-3.0952268	FLOODS	-0.04287737
-3.0952268	FAMINES	-0.04287737
-3.0952268	DISEASE	-0.04287737
-3.0952268	CRIPPLED	-0.04287737
-3.0952268	CHILDREN	-0.04287737
-3.0952268	INSANITY	-0.04287737
-3.0952268	WARS	-0.04287737
-3.0952268	CRIME	-0.04287737
-3.0952268	WRONG	-0.04287737
-2.882719	THESE	-0.04287737
-3.0952268	PRAYERS	-0.04287737
-2.882719	ANSWERED	-0.04287737
-2.882719	MANY	-0.04287737
-2.882719	SELF	-0.04287737
-3.0952268	DELUDED	-0.04287737
-3.0952268	PROPHETS	-0.04287737
-3.0952268	EXTRAVAGANT	-0.04287737
-3.0952268	CLAIMS	-0.04287737
-3.0952268	PRODUCED	-0.04287737
-3.0952268	CAN	-0.04287737
-3.0952268	BITTER	-0.04287737
-3.0952268	DISAPPOINTMENTS	-0.04287737
-3.0952268	CAUSED	-0.04287737
-3.0952268	PROMISES	-0.04287737
-3.0952268	SAME	-0.04287737
-3.0952268	PREACHERS	-0.04287737
-3.0952268	PARRIED	-0.04287737
-3.0952268	ANSWER	-0.04287737
-3.0952268	WORDS	-0.04287737
-3.0952268	LENGTH	-0.04287737
-2.929199	SAID	-0.04287737
-3.0952268	PROVISION	-0.04287737
-2.5024788	WHAT	-0.110146545
-2.882719	ASKED	-0.04287737
-2.929199	GOD	-0.1481404
-3.0952268	THOUGHT	-0.04287737
-3.0952268	YE	-0.04287737
-2.882719	ASK	-0.04287737
-3.0952268	ANYTHING	-0.04287737
-2.2390327	MY	-0.09509444
-2.882719	NAME	-0.04287737
-2.882719	WILL	-0.04287737
-3.0952268	SO	-0.04287737
-2.7368839	TOLD	-0.04287737
-2.4202144	YOU	-0.04287737
-2.882719	DID	-0.04287737
-3.0952268	MEAN	-0.04287737
-3.0952268	JUST	-0.04287737
-3.0952268	EFFORT	-0.04287737
-3.0952268	PRAYER	-0.04287737
-3.0952268	REMEDY	-0.04287737
-3.0952268	IGNORANCE	-0.04287737
-3.0952268	SLAVERY	-0.04287737
-3.0952268	POVERTY	-0.04287737
-2.882719	MORAL	-0.04287737
-3.0952268	DEGRADATION	-0.04287737
-3.0952268	AM	-0.04287737
-3.0952268	DETERMINED	-0.04287737
-3.0952268	POSSIBLE	-0.04287737
-3.0952268	WHOLE	-0.04287737
-2.7368839	TRUTH	-0.04287737
-3.0952268	COMMUNICATE	-0.04287737
-2.882719	OTHERS	-0.04287737
-3.0952268	TONIC	-0.04287737
-3.0952268	OPEN	-0.04287737
-3.0952268	CANDID	-0.04287737
-2.882719	LIKE	-0.04287737
-3.0952268	MULTITUDE	-0.04287737
-3.0952268	PLATITUDES	-0.04287737
-3.0952268	DELIVER	-0.04287737
-3.0952268	LECTURE	-0.04287737
-3.0952268	EITHER	-0.04287737
-3.0952268	DIRECTLY	-0.04287737
-3.0952268	INDIRECTLY	-0.04287737
-3.0952268	EXPRESSION	-0.04287737
-3.0952268	EVERYTHING	-0.04287737
-3.0952268	WORTHY	-0.04287737
-2.882719	BELIEVE	-0.28736815
-3.0952268	DOGMA	-0.04287737
-3.0952268	FREEDOM	-0.04287737
-3.0952268	OH	-0.04287737
-2.882719	TEARS	-0.04287737
-2.882719	DOWN	-0.04287737
-3.0952268	DOES	-0.04287737
-3.0952268	BUILD	-0.04287737
-3.0952268	ANOTHER	-0.04287737
-3.0952268	CRITICISM	-0.04287737
-3.0952268	WORK	-0.04287737
-2.882719	TRUE	-0.04287737
-3.0952268	PREACHER	-0.04287737
-2.929199	PRIEST	-0.18977956
-3.0952268	CONSTRUCTIVE	-0.04287737
-3.0952268	CLAPPING	-0.04287737
-3.0952268	JAIL	-0.04287737
-3.0952268	GAGGING	-0.04287737
-3.0952268	STUDENT	-0.04287737
-3.0952268	BUILDING	-0.04287737
-3.0952268	TEARING	-0.04287737
-3.0952268	BRUNO	-0.04287737
-3.0952268	LIGHTED	-0.04287737
-3.0952268	TORCH	-0.04287737
-3.0952268	INCREASE	-0.04287737
-2.929199	LIGHT	-0.18977956
-3.0952268	REWARD	-0.04287737
-3.0952268	STAKE	-0.04287737
-3.0952268	COUNT	-0.04287737
-3.0952268	RIGHTS	-0.04287737
-3.0952268	POLITICAL	-0.04287737
-3.0952268	RELIGIOUS	-0.04287737
-3.0952268	SOCIAL	-0.04287737
-3.0952268	INTELLECTUAL	-0.04287737
-2.882719	TELL	-0.04287737
-2.604055	ME	-0.110146545
-3.0952268	CONQUERED	-0.04287737
-3.0952268	WISH	-0.04287737
-3.0952268	SOMETHING	-0.04287737
-3.0952268	FIRST	-0.04287737
-3.0952268	IMPERSONAL	-0.04287737
-3.0952268	EPITHETS	-0.04287737
-3.0952268	IRREVERENT	-0.04287737
-3.0952268	BLASPHEMER	-0.04287737
-3.0952268	ATHEIST	-0.04287737
-3.0952268	INFIDEL	-0.04287737
-3.0952268	FLUNG	-0.04287737
-3.0952268	PITY	-0.04287737
-3.0952268	ENVY	-0.04287737
-3.0952268	HAVING	-0.04287737
-3.0952268	COURAGE	-0.04287737
-3.0952268	INDUSTRY	-0.04287737
-3.0952268	NEIGHBOR	-0.04287737
-3.0952268	WORKS	-0.04287737
-3.0952268	BUSY	-0.04287737
-3.0952268	BEE	-0.04287737
-3.0952268	MEN	-0.04287737
-3.0952268	BOOKS	-0.04287737
-3.0952268	SEARCHING	-0.04287737
-3.0952268	SWEAT	-0.04287737
-3.0952268	BROW	-0.04287737
-3.0952268	REAL	-0.04287737
-3.0952268	BREAD	-0.04287737
-3.0952268	LIFE	-0.04287737
-3.0952268	WETTING	-0.04287737
-3.0952268	PAGE	-0.04287737
-3.0952268	PUSHING	-0.04287737
-3.0952268	WEE	-0.04287737
-3.0952268	HOURS	-0.04287737
-3.0952268	NIGHT	-0.04287737
-3.0952268	QUEST	-0.04287737
-3.0952268	ANIMATED	-0.04287737
-3.0952268	FAIREST	-0.04287737
-3.0952268	LOVES	-0.04287737
-3.0952268	LOVE	-0.04287737
-3.0952268	EASE	-0.04287737
-3.0952268	OWN	-0.04287737
-3.0952268	INDOLENT	-0.04287737
-3.0952268	CONSCIENCE	-0.04287737
-3.0952268	CALLING	-0.04287737
-3.0952268	NAMES	-0.04287737
-3.0952268	APPROACHED	-0.04287737
-2.882719	CITY	-0.04287737
-3.0952268	HEARD	-0.04287737
-3.0952268	BELLS	-0.04287737
-3.0952268	RINGING	-0.04287737
-3.0952268	LITTLE	-0.04287737
-3.0952268	LATER	-0.04287737
-3.0952268	FOUND	-0.04287737
-3.0952268	STREETS	-0.04287737
-3.0952268	ASTIR	-0.04287737
-3.0952268	THRONGS	-0.04287737
-3.0952268	WELL	-0.04287737
-3.0952268	DRESSED	-0.04287737
-3.0952268	FAMILY	-0.04287737
-3.0952268	GROUPS	-0.04287737
-3.0952268	WENDING	-0.04287737
-2.929199	THEIR	-0.04287737
-3.0952268	HITHER	-0.04287737
-3.0952268	THITHER	-0.04287737
-3.0952268	LOOKING	-0.04287737
-3.0952268	GENTLEMAN	-0.04287737
-3.0952268	NEAT	-0.04287737
-3.0952268	BLACK	-0.04287737
-3.0952268	DRESS	-0.04287737
-3.0952268	SMILING	-0.04287737
-3.0952268	EXTENDED	-0.04287737
-3.0952268	GREAT	-0.04287737
-3.0952268	CORDIALITY	-0.04287737
-3.0952268	MUST	-0.04287737
-3.0952268	STRANGER	-0.04287737
-3.0952268	WISHED	-0.04287737
-3.0952268	TENDER	-0.04287737
-3.0952268	HOSPITALITY	-0.04287737
-3.0952268	ACCEPTED	-0.04287737
-3.0952268	GRATEFULLY	-0.04287737
-3.0952268	CLASPED	-0.04287737
-3.0952268	PRESSED	-0.04287737
-3.0952268	MINE	-0.04287737
-3.0952268	GAZED	-0.04287737
-3.0952268	MOMENT	-0.04287737
-3.0952268	SILENTLY	-0.04287737
-2.929199	EYES	-0.04287737
-3.0952268	COURSE	-0.04287737
-3.0952268	GOING	-0.04287737
-3.0952268	TOO	-0.04287737
-3.0952268	FRIENDLY	-0.04287737
-2.882719	GUIDE	-0.04287737
-2.882719	YES	-0.04287737
-3.0952268	CONDUCT	-0.04287737
-3.0952268	IDOL	-0.04287737
-3.0952268	WHISPERED	-0.04287737
-3.0952268	SURPRISE	-0.04287737
-3.0952268	WORSHIPPED	-0.04287737
-3.0952268	EXIST	-0.04287737
-3.0952268	GREEKS	-0.04287737
-3.0952268	LOVED	-0.04287737
-3.0952268	PROTESTED	-0.04287737
-2.882719	HEART	-0.04287737
-3.0952268	CLAMORING	-0.04287737
-3.0952268	BREAST	-0.04287737
-3.0952268	LOW	-0.04287737
-2.929199	VOICE	-0.18977956
-3.0952268	MADE	-0.04287737
-3.0952268	ATHENS	-0.04287737
-3.0952268	CREATED	-0.04287737
-2.882719	BEAUTIFUL	-0.04287737
-3.0952268	FAULT	-0.04287737
-3.0952268	INTERRUPTED	-0.04287737
-3.0952268	INQUIRED	-0.04287737
-3.0952268	WITHOUT	-0.04287737
-3.0952268	KNOWING	-0.04287737
-3.0952268	PRODUCE	-0.04287737
-3.0952268	MYSELF	-0.04287737
-3.0952268	BLASPHEMY	-0.04287737
-3.0952268	TAKING	-0.04287737
-3.0952268	ONCE	-0.04287737
-3.0952268	FELT	-0.04287737
-3.0952268	APOLLOS	-0.04287737
-3.0952268	RADIANT	-0.04287737
-3.0952268	IMMORTAL	-0.04287737
-3.0952268	LINES	-0.04287737
-2.929199	HOMER	-0.04287737
-2.604055	APOLLO	-0.124947675
-3.0952268	DOUBT	-0.04287737
-3.0952268	INSPIRED	-0.04287737
-3.0952268	BARD	-0.04287737
-3.0952268	SON	-0.04287737
-3.0952268	AIR	-0.04287737
-3.0952268	HEAVY	-0.04287737
-3.0952268	INCENSE	-0.04287737
-3.0952268	GORGEOUS	-0.04287737
-3.0952268	VESTMENTS	-0.04287737
-3.0952268	PASSING	-0.04287737
-3.0952268	FRO	-0.04287737
-3.0952268	BOWING	-0.04287737
-3.0952268	KNEELING	-0.04287737
-3.0952268	LIGHTS	-0.04287737
-3.0952268	IMAGES	-0.04287737
-3.0952268	OBSERVING	-0.04287737
-3.0952268	ANXIETY	-0.04287737
-3.0952268	UNDERSTAND	-0.04287737
-3.0952268	MEANING	-0.04287737
-3.0952268	TOOK	-0.04287737
-3.0952268	ASIDE	-0.04287737
-3.0952268	WHISPER	-0.04287737
-3.0952268	CELEBRATING	-0.04287737
-3.0952268	ANNIVERSARY	-0.04287737
-3.0952268	SAVIOR	-0.04287737
-3.0952268	FORGET	-0.04287737
-3.0952268	SUGGESTION	-0.04287737
-3.0952268	SEVERITY	-0.04287737
-3.0952268	PERSON	-0.04287737
-3.0952268	SEARCH	-0.04287737
-3.0952268	FIND	-0.04287737
-3.0952268	ANSWERING	-0.04287737
-3.0952268	DESCRIPTION	-0.04287737
-3.0952268	WANT	-0.04287737
-3.0952268	HASTENED	-0.04287737
-3.0952268	TURNING	-0.04287737
-3.0952268	TOWARD	-0.04287737
-3.0952268	MORNING	-0.04287737
-3.0952268	SPEAK	-0.04287737
-3.0952268	WORSHIPPERS	-0.04287737
-3.0952268	PERMIT	-0.04287737
-3.0952268	CARESS	-0.04287737
-3.0952268	CLASP	-0.04287737
-3.0952268	INHALE	-0.04287737
-3.0952268	AMBROSIAL	-0.04287737
-3.0952268	FRAGRANCE	-0.04287737
-3.0952268	BREATH	-0.04287737
-3.0952268	BASK	-0.04287737
-3.0952268	GOLDEN	-0.04287737
-3.0952268	HEAR	-0.04287737
-3.0952268	MUSIC	-0.04287737
-3.0952268	IMMACULATE	-0.04287737
-3.0952268	ACCENTS	-0.04287737
-3.0952268	FILLED	-0.04287737
-3.0952268	WONDER	-0.04287737
-3.0952268	QUIVERING	-0.04287737
-3.0952268	EXCITEMENT	-0.04287737
-3.0952268	VENTURED	-0.04287737
-3.0952268	IMPATIENTLY	-0.04287737
-3.0952268	MAKE	-0.04287737
-3.0952268	MUCH	-0.04287737

\2-grams:
-1.1349864	MYTH </s>	0
-0.84226084	PHENOMENON </s>	0
-1.0141801	MIND </s>	0
-1.2641459	FOR </s>	0
-1.0908772	CHILD </s>	0
-1.0908772	KNOW </s>	0
-1.1349864	OTHER </s>	0
-0.6454186	SCIENCE </s>	0
-1.2695882	THAT </s>	0
-0.84226084	REALIZATION </s>	0
-1.1991999	ONE </s>	0
-0.84226084	HINDOOS </s>	0
-1.0141801	PUT </s>	0
-1.2977928	JESUS </s>	0
-0.84226084	FICTION </s>	0
-1.3442218	IT </s>	0
-0.84226084	GUESSES </s>	0
-1.0141801	MOUTH </s>	0
-0.84226084	SPIRIT </s>	0
-1.0141801	BEINGS </s>	0
-1.0141801	MOON </s>	0
-0.84226084	DISCRETION </s>	0
-0.84226084	MATURED </s>	0
-0.84226084	MANKIND </s>	0
-0.4942944	HIM </s>	0
-0.84226084	REASONABLE </s>	0
-1.0908772	EVIDENCE </s>	0
-0.84226084	REALITY </s>	0
-1.0141801	DAY </s>	0
-0.84226084	INSPIRATION </s>	0
-1.0908772	AGAIN </s>	0
-1.0141801	MARY </s>	0
-0.84226084	MESSIAH </s>	0
-0.84226084	DIFFICULTIES </s>	0
-1.0141801	YEAR </s>	0
-1.0908772	GOOD </s>	0
-0.84226084	EASTER </s>	0
-0.84226084	HIMSELF </s>	0
-0.84226084	MARK </s>	0
-0.84226084	EXISTED </s>	0
-1.0908772	THEM </s>	0
-0.84226084	EXCLUSIVELY </s>	0
-1.1349864	DIVINE </s>	0
-0.84226084	VOTES </s>	0
-1.0908772	FAITH </s>	0
-0.84226084	HEREAFTER </s>	0
-0.84226084	ATTENTION </s>	0
-0.84226084	WRONG </s>	0
-1.0141801	ANSWERED </s>	0
-0.84226084	PRODUCED </s>	0
-0.84226084	PROMISES </s>	0
-1.1840874	SAID </s>	0
-0.55117404	GOD </s>	0
-1.1991999	YOU </s>	0
-0.84226084	DEGRADATION </s>	0
-1.0141801	OTHERS </s>	0
-0.84226084	PLATITUDES </s>	0
-0.84226084	FREEDOM </s>	0
-1.0141801	DOWN </s>	0
-1.0141801	TRUE </s>	0
-0.4459036	PRIEST </s>	0
-0.84226084	CONSTRUCTIVE </s>	0
-0.84226084	STAKE </s>	0
-0.84226084	SOMETHING </s>	0
-0.84226084	ENVY </s>	0
-0.84226084	NAMES </s>	0
-0.84226084	THITHER </s>	0
-0.84226084	CORDIALITY </s>	0
-0.84226084	MINE </s>	0
-1.0908772	EYES </s>	0
-1.1349864	GUIDE </s>	0
-1.1349864	IDOL </s>	0
-0.84226084	SURPRISE </s>	0
-0.84226084	EXIST </s>	0
-0.84226084	BREAST </s>	0
-0.4459036	VOICE </s>	0
-0.84226084	BLASPHEMY </s>	0
-1.0908772	HOMER </s>	0
-0.62926805	APOLLO </s>	0
-0.84226084	BARD </s>	0
-0.84226084	IMAGES </s>	0
-0.84226084	DESCRIPTION </s>	0
-0.84226084	MORNING </s>	0
-0.84226084	ACCENTS </s>	0
-0.84226084	EXCITEMENT </s>	0
-1.7165186	<s> A	-0.012197109
-1.4275026	IS A	-0.012197109
-1.1435741	OF A	-0.012197109
-1.6771839	FOR A	-0.012197109
-1.8099078	AND A	-0.012197109
-1.4901977	AT A	-0.012197109
-1.137878	WITH A	-0.012197109
-1.4312679	MAN A	-0.012197109
-1.7520092	WAS A	-0.012197109
-0.8645796	IN A	-0.012197109
-1.7306786	JESUS A	-0.012197109
-0.9683738	INTRODUCES A	-0.012197109
-1.7828361	NOT A	-0.012197109
-1.5967607	ONLY A	-0.012197109
-1.5344548	OR A	-0.012197109
-1.3479519	ON A	-0.012197109
-1.2178993	SAW A	-0.012197109
-1.3479519	SUCH A	-0.012197109
-1.2178993	AM A	-0.012197109
-1.2178993	LIKE A	-0.012197109
-0.9683738	DELIVER A	-0.012197109
-0.9683738	LIGHTED A	-0.012197109
-0.9683738	ATHENS A	-0.012197109
-0.9683738	INCENSE A	-0.012197109
-1.3063852	A MYTH	-0.034919877
-2.723391	THE MYTH	-0.012197109
-1.9978472	<s> IS	-0.012197109
-1.438289	MYTH IS	-0.012197109
-1.6308963	THIS IS	-0.012197109
-1.7368646	THAT IS	-0.012197109
-1.6593041	WHICH IS	-0.012197109
-0.7480618	THERE IS	-0.030279184
-0.67285115	IT IS	-0.0250356
-1.3537393	UP IS	-0.012197109
-0.9707793	CRADLE IS	-0.012197109
-0.9707793	SCHOOL IS	-0.012197109
-1.2221817	RELIGION IS	-0.012197109
-1.1483308	HE IS	-0.012197109
-0.9707793	RESPECT IS	-0.012197109
-1.2221817	WORSHIP IS	-0.012197109
-0.9707793	HUMANITY IS	-0.012197109
-0.9707793	CRUCIFIXION IS	-0.012197109
-1.4982488	HOW IS	-0.012197109
-0.9707793	ELSE IS	-0.012197109
-1.3537393	FAITH IS	-0.012197109
-0.9707793	PRAYER IS	-0.012197109
-1.3918008	PRIEST IS	-0.012197109
-0.9707793	STUDENT IS	-0.012197109
-1.5298694	APOLLO IS	-0.012197109
-2.5050042	A FANCIFUL	-0.012197109
-1.0234702	FANCIFUL EXPLANATION	-0.012197109
-1.6381469	<s> OF	-0.012197109
-1.2606814	MYTH OF	-0.012197109
-0.90178335	EXPLANATION OF	-0.012197109
-1.1058455	BECAUSE OF	-0.012197109
-1.1058455	MYTHUS OF	-0.012197109
-1.4048815	SCIENCE OF	-0.012197109
-1.202717	BORN OF	-0.012197109
-0.83678097	WHICH OF	-0.012197109
-1.1058455	MOUTH OF	-0.012197109
-0.90178335	YEARS OF	-0.012197109
-0.90178335	WOMB OF	-0.012197109
-0.90178335	FAITHS OF	-0.012197109
-0.90178335	BIRTHPLACE OF	-0.012197109
-0.29939646	DISCUSSION OF	-0.012197109
-1.4871242	HIM OF	-0.012197109
-0.90178335	HANDS OF	-0.012197109
-1.2606814	WORLD OF	-0.012197109
-0.90178335	MILLIONS OF	-0.012197109
-0.90178335	LABOR OF	-0.012197109
-1.1058455	NUMBER OF	-0.012197109
-0.90178335	BIRTHDAY OF	-0.012197109
-0.90178335	DESIGNS OF	-0.012197109
-0.90178335	NOR OF	-0.012197109
-1.2606814	MORE OF	-0.012197109
-0.90178335	POSITION OF	-0.012197109
-0.90178335	PHASES OF	-0.012197109
-0.90178335	ABSENCE OF	-0.012197109
-0.90178335	COMPANIONS OF	-0.012197109
-0.90178335	NOTE OF	-0.012197109
-1.1058455	PRESENCE OF	-0.012197109
-0.90178335	CONTEMPORARIES OF	-0.012197109
-0.90178335	HISTORIANS OF	-0.012197109
-0.90178335	NOTICE OF	-0.012197109
-0.90178335	GOVERNMENT OF	-0.012197109
-0.90178335	PREACHERS OF	-0.012197109
-0.90178335	MULTITUDE OF	-0.012197109
-0.90178335	WORTHY OF	-0.012197109
-0.46212488	LIGHT OF	-0.012197109
-0.90178335	INDUSTRY OF	-0.012197109
-0.90178335	SWEAT OF	-0.012197109
-0.90178335	BREAD OF	-0.012197109
-0.90178335	HOURS OF	-0.012197109
-0.90178335	FAIREST OF	-0.012197109
-0.90178335	LOVE OF	-0.012197109
-1.1058455	CITY OF	-0.012197109
-0.90178335	THRONGS OF	-0.012197109
-0.90178335	LINES OF	-0.012197109
-0.90178335	SON OF	-0.012197109
-0.90178335	MEANING OF	-0.012197109
-0.90178335	ANNIVERSARY OF	-0.012197109
-0.90178335	SUGGESTION OF	-0.012197109
-0.90178335	FRAGRANCE OF	-0.012197109
-0.90178335	MUSIC OF	-0.012197109
-0.90178335	MUCH OF	-0.012197109
-2.4512875	A GIVEN	-0.012197109
-1.0501329	BE GIVEN	-0.012197109
-1.4939713	GIVEN PHENOMENON	-0.012197109
-1.0145781	<s> THE	-0.012197109
-1.0390041	IS THE	-0.012197109
-0.72607774	OF THE	-0.012197109
-0.90264606	FOR THE	-0.012197109
-0.8719628	KNOWLEDGE THE	-0.012197109
-1.2863791	TO THE	-0.012197109
-1.216645	AND THE	-0.012197109
-1.0514028	WITH THE	-0.012197109
-1.0590744	MYTHUS THE	-0.012197109
-1.3795836	WAS THE	-0.012197109
-1.0409349	THAT THE	-0.012197109
-0.65667146	IN THE	-0.023409886
-0.6250749	BY THE	-0.012197109
-0.29502678	CONCERNING THE	-0.012197109
-0.8719628	PRECISELY THE	-0.012197109
-0.8164096	WHICH THE	-0.012197109
-0.98101455	JESUS THE	-0.012197109
-1.4251808	IT THE	-0.012197109
-0.64407057	INTO THE	-0.012197109
-0.8719628	FILL THE	-0.012197109
-1.0590744	OVER THE	-0.012197109
-0.8719628	COVET THE	-0.012197109
-1.0590744	TOUCH THE	-0.012197109
-0.8719628	REACHED THE	-0.012197109
-0.64407057	ALL THE	-0.012197109
-0.84168655	AS THE	-0.012197109
-0.8719628	COSTING THE	-0.012197109
-1.3113763	BUT THE	-0.012197109
-0.8719628	SERVICE THE	-0.012197109
-1.0590744	TIME THE	-0.012197109
-0.8719628	ENERGIES THE	-0.012197109
-0.8719628	AFFECTION THE	-0.012197109
-1.2522388	OR THE	-0.012197109
-1.0590744	NUMBER THE	-0.012197109
-1.0590744	YET THE	-0.012197109
-1.1450045	ON THE	-0.012197109
-1.1450045	WHY THE	-0.012197109
-0.8719628	ESCAPE THE	-0.012197109
-0.8719628	KILL THE	-0.012197109
-0.8719628	COMMEMORATED THE	-0.012197109
-0.4542002	BEFORE THE	-0.012197109
-0.8719628	AFTER THE	-0.012197109
-0.8719628	MAKING THE	-0.012197109
-1.0590744	UPON THE	-0.012197109
-0.8719628	BECOME THE	-0.012197109
-0.8719628	OFFERS THE	-0.012197109
-1.1450045	AGAINST THE	-0.012197109
-1.0590744	SEE THE	-0.012197109
-0.8719628	OCCUPY THE	-0.012197109
-0.8719628	POSSIBLE THE	-0.012197109
-1.0590744	LIKE THE	-0.012197109
-1.0590744	TRUE THE	-0.012197109
-0.8719628	GAGGING THE	-0.012197109
-0.8719628	INCREASE THE	-0.012197109
-0.8719628	REWARD THE	-0.012197109
-0.8719628	IMPERSONAL THE	-0.012197109
-0.8719628	HAVING THE	-0.012197109
-0.8719628	WETTING THE	-0.012197109
-0.8719628	LOVES THE	-0.012197109
-0.8719628	APPROACHED THE	-0.012197109
-0.8719628	FOUND THE	-0.012197109
-0.8719628	CONDUCT THE	-0.012197109
-0.8719628	CREATED THE	-0.012197109
-1.0590744	BEAUTIFUL THE	-0.012197109
-1.1450045	HOMER THE	-0.012197109
-0.8719628	UNDERSTAND THE	-0.012197109
-0.8719628	CELEBRATING THE	-0.012197109
-0.8719628	INHALE THE	-0.012197109
-0.8719628	HEAR THE	-0.012197109
-2.723391	THE MIND	-0.012197109
-1.4877951	CHILD MIND	-0.012197109
-1.3211776	MIND CRAVES	-0.012197109
-1.0007358	CRAVES FOR	-0.012197109
-1.0007358	FACULTY FOR	-0.012197109
-2.0149808	IT FOR	-0.012197109
-1.0007358	OUT FOR	-0.012197109
-1.0007358	ACCOUNTED FOR	-0.012197109
-1.0007358	CANDIDATES FOR	-0.012197109
-1.4299672	ASKED FOR	-0.012197109
-1.0007358	CONQUERED FOR	-0.012197109
-1.0007358	BROW FOR	-0.012197109
-1.0007358	GAZED FOR	-0.012197109
-1.0007358	SEARCH FOR	-0.012197109
-2.0354025	FOR KNOWLEDGE	-0.012197109
-2.1071103	THE CHILD	-0.012197109
-1.4939713	CHILD ASKS	-0.012197109
-1.0234702	ASKS QUESTIONS	-0.012197109
-2.4086273	IS BECAUSE	-0.012197109
-1.02137	QUESTIONS BECAUSE	-0.012197109
-2.5975137	<s> AN	-0.012197109
-1.7604201	OF AN	-0.012197109
-2.1216898	WAS AN	-0.012197109
-2.2211268	NOT AN	-0.012197109
-1.8122673	ONLY AN	-0.012197109
-1.793728	AN INBORN	-0.012197109
-1.02137	INBORN DESIRE	-0.012197109
-2.0747635	WE DESIRE	-0.012197109
-1.5437778	IS TO	-0.012197109
-0.30056915	DESIRE TO	-0.05889745
-0.9100939	ENOUGH TO	-0.012197109
-1.5005531	WAS TO	-0.012197109
-1.4716492	THAT TO	-0.012197109
-0.9100939	USE TO	-0.012197109
-1.4410475	WE TO	-0.012197109
-1.119218	FEET TO	-0.012197109
-1.511083	NOT TO	-0.012197109
-0.9100939	BEGIN TO	-0.012197109
-0.9100939	APPEAL TO	-0.012197109
-1.5111865	HIM TO	-0.012197109
-1.4105703	ONLY TO	-0.012197109
-1.119218	ALSO TO	-0.012197109
-0.9100939	DRAWING TO	-0.012197109
-1.3501078	WERE TO	-0.012197109
-0.30056915	APPEAR TO	-0.05889745
-0.9100939	DOCUMENT TO	-0.012197109
-0.9100939	INTENTION TO	-0.012197109
-0.9100939	COME TO	-0.012197109
-1.119218	YEAR TO	-0.012197109
-0.9100939	CALCULATION TO	-0.012197109
-1.3206539	ARE TO	-0.012197109
-0.9100939	SEEMS TO	-0.012197109
-0.9100939	OBJECT TO	-0.012197109
-0.9100939	ADDING TO	-0.012197109
-1.3501078	HAND TO	-0.012197109
-0.9100939	WENT TO	-0.012197109
-1.2194964	THEM TO	-0.012197109
-1.2194964	IMPOSSIBLE TO	-0.012197109
-0.9100939	SILENCE TO	-0.012197109
-1.119218	UNIVERSE TO	-0.012197109
-0.9100939	PETITIONS TO	-0.012197109
-1.3501078	SAID TO	-0.012197109
-1.2799103	TRUTH TO	-0.012197109
-0.9100939	EXPRESSION TO	-0.012197109
-0.9100939	TORCH TO	-0.012197109
-0.9100939	WISH TO	-0.012197109
-0.9100939	EXTENDED TO	-0.012197109
-0.9100939	WISHED TO	-0.012197109
-0.9100939	HOSPITALITY TO	-0.012197109
-1.2194964	EYES TO	-0.012197109
-1.119218	WHISPERED TO	-0.012197109
-0.9100939	PASSING TO	-0.012197109
-0.9100939	ANXIETY TO	-0.012197109
-0.9100939	ANSWERING TO	-0.012197109
-0.9100939	WANT TO	-0.012197109
-0.9100939	SPEAK TO	-0.012197109
-0.9100939	BREATH TO	-0.012197109
-0.9100939	VENTURED TO	-0.012197109
-1.7073177	TO KNOW	-0.012197109
-2.7507708	<s> NOW	-0.012197109
-1.02137	SWORD NOW	-0.012197109
-1.6480465	<s> AND	-0.012197109
-1.7111086	TO AND	-0.012197109
-0.30499524	NOW AND	-0.012197109
-1.4102778	THEN AND	-0.012197109
-1.6734854	IT AND	-0.012197109
-0.94275653	PACE AND	-0.012197109
-1.527711	ABOUT AND	-0.012197109
-1.1733868	FAIRIES AND	-0.012197109
-1.3607106	GODS AND	-0.012197109
-0.94275653	INVISIBLE AND	-0.012197109
-0.94275653	MOUTHPIECE AND	-0.012197109
-0.94275653	DEVOTION AND	-0.012197109
-0.94275653	DATE AND	-0.012197109
-1.1733868	MARY AND	-0.012197109
-1.1733868	FULL AND	-0.012197109
-0.94275653	ZODIAC AND	-0.012197109
-1.1733868	JUDAS AND	-0.012197109
-0.94275653	AUTHORS AND	-0.012197109
-0.94275653	WORDS AND	-0.012197109
-1.4060632	GOD AND	-0.012197109
-0.94275653	EFFORT AND	-0.012197109
-0.94275653	POVERTY AND	-0.012197109
-1.1733868	OPEN AND	-0.012197109
-0.94275653	INTELLECTUAL AND	-0.012197109
-0.94275653	ATHEIST AND	-0.012197109
-1.1733868	MEN AND	-0.012197109
-0.94275653	RINGING AND	-0.012197109
-0.94275653	HITHER AND	-0.012197109
-0.94275653	SMILING AND	-0.012197109
-0.94275653	STRANGER AND	-0.012197109
-1.2889143	HEART AND	-0.012197109
-0.94275653	BOWING AND	-0.012197109
-0.94275653	LIGHTS AND	-0.012197109
-0.94275653	ASIDE AND	-0.012197109
-0.94275653	WONDER AND	-0.012197109
-2.5975137	<s> THEN	-0.012197109
-2.3333697	AND THEN	-0.012197109
-2.094522	THAT THEN	-0.012197109
-1.6766053	HOW THEN	-0.012197109
-1.5890964	IDOL THEN	-0.012197109
-2.676059	<s> THEY	-0.012197109
-1.6890345	THEN THEY	-0.012197109
-2.1265204	THAT THEY	-0.012197109
-1.4815164	COULD THEY	-0.012197109
-1.6156375	THEY CAME	-0.012197109
-1.0234702	CAME CLOSE	-0.012197109
-1.0234702	CLOSE ENOUGH	-0.012197109
-2.6053057	TO SNAP	-0.012197109
-2.3333697	AND AT	-0.012197109
-1.0165262	SNAP AT	-0.012197109
-1.0165262	CHURCH AT	-0.012197109
-1.0165262	MYTHOLOGY AT	-0.012197109
-1.0165262	FLUNG AT	-0.012197109
-1.6992047	AT EACH	-0.012197109
-1.7036679	INTO EACH	-0.012197109
-2.5784326	OF OTHER	-0.012197109
-2.6336775	THE OTHER	-0.012197109
-2.3903913	AND OTHER	-0.012197109
-1.3127717	EACH OTHER	-0.012197109
-2.1472802	<s> WITH	-0.012197109
-1.3965656	US WITH	-0.012197109
-0.9880019	DISAGREE WITH	-0.012197109
-1.7987366	HIM WITH	-0.012197109
-0.9880019	JOSEPH WITH	-0.012197109
-0.9880019	MEET WITH	-0.012197109
-0.9880019	ROME WITH	-0.012197109
-1.3965656	TAKEN WITH	-0.012197109
-1.2534016	ANSWER WITH	-0.012197109
-1.6115757	SAID WITH	-0.012197109
-1.6345693	ME WITH	-0.012197109
-0.9880019	SEARCHING WITH	-0.012197109
-0.9880019	ASTIR WITH	-0.012197109
-0.9880019	HEAVY WITH	-0.012197109
-0.9880019	FILLED WITH	-0.012197109
-0.9880019	QUIVERING WITH	-0.012197109
-2.1573231	IS THIS	-0.012197109
-2.3367646	OF THIS	-0.012197109
-2.1595511	AND THIS	-0.012197109
-1.9965215	WITH THIS	-0.012197109
-1.7990396	ABOUT THIS	-0.012197109
-1.645203	ALL THIS	-0.012197109
-1.0059357	WHETHER THIS	-0.012197109
-1.4440819	WHY THIS	-0.012197109
-1.2870411	HERE THIS	-0.012197109
-2.723391	THE MYTHUS	-0.012197109
-1.9343231	THIS MYTHUS	-0.012197109
-2.832691	THE PRIMITIVE	-0.012197109
-2.4020765	A MAN	-0.012197109
-1.0192146	PRIMITIVE MAN	-0.012197109
-1.4815164	UNTIL MAN	-0.012197109
-2.3765254	IN MAN	-0.012197109
-1.5328059	MAN WAS	-0.012197109
-0.70460093	SCIENCE WAS	-0.012197109
-2.0149808	IT WAS	-0.012197109
-1.277161	RELIGION WAS	-0.012197109
-2.0994792	I WAS	-0.012197109
-1.2439998	HE WAS	-0.012197109
-0.84346545	WHO WAS	-0.012197109
-1.4299672	THEM WAS	-0.012197109
-1.277161	PROMISE WAS	-0.012197109
-0.7790437	WHAT WAS	-0.012197109
-1.0007358	AIR WAS	-0.012197109
-2.2087305	WAS SATISFIED	-0.012197109
-1.0219198	SATISFIED UNTIL	-0.012197109
-1.4894066	BORN UNTIL	-0.012197109
-1.0219198	GROUND UNTIL	-0.012197109
-1.281399	OF HIS	-0.012197082
-1.617886	TO HIS	-0.012197109
-1.961661	AND HIS	-0.012197109
-1.8583537	WITH HIS	-0.012197109
-1.8719437	WAS HIS	-0.012197109
-1.3965656	UNTIL HIS	-0.012197109
-2.0560386	IN HIS	-0.012197109
-1.2534016	UPON HIS	-0.012197109
-0.9880019	KEEP HIS	-0.012197109
-0.9880019	PARRIED HIS	-0.012197109
-1.6345693	WHAT HIS	-0.012197109
-0.9880019	NIGHT HIS	-0.012197109
-0.9880019	TENDER HIS	-0.012197109
-0.9880019	CLASPED HIS	-0.012197109
-0.9880019	CARESS HIS	-0.012197109
-0.9880019	CLASP HIS	-0.012197109
-2.305206	HIS DEVELOPING	-0.012197109
-1.0234702	DEVELOPING INTELLIGENCE	-0.012197109
-1.02137	INTELLIGENCE REALIZED	-0.012197109
-1.9385828	HAVE REALIZED	-0.012197109
-1.3181059	REALIZED ITS	-0.012197109
-1.0219198	CURBING ITS	-0.012197109
-1.0219198	SUBDUING ITS	-0.012197109
-1.4939713	ITS INADEQUACY	-0.012197109
-2.5975137	<s> SCIENCE	-0.012197109
-2.5181513	OF SCIENCE	-0.012197109
-2.5423265	THE SCIENCE	-0.012197109
-1.0165262	INADEQUACY SCIENCE	-0.012197109
-1.0165262	CREATE SCIENCE	-0.012197109
-1.2364947	WAS BORN	-0.012197109
-2.2993944	NOT BORN	-0.012197109
-1.9945463	IS THAT	-0.012197109
-2.1571786	OF THAT	-0.012197109
-1.8895626	WAS THAT	-0.012197109
-1.9360827	IT THAT	-0.012197109
-1.4989626	GODS THAT	-0.012197109
-1.9383724	NOT THAT	-0.012197109
-1.4030435	EVIDENCE THAT	-0.012197109
-1.4030435	ON THAT	-0.012197109
-1.2580507	SAYS THAT	-0.012197109
-1.2580507	FRIDAY THAT	-0.012197109
-1.622255	SAID THAT	-0.012197109
-0.9905189	PROVISION THAT	-0.012197109
-0.9905189	COMMUNICATE THAT	-0.012197109
-0.9905189	EVERYTHING THAT	-0.012197109
-1.6442019	ME THAT	-0.012197109
-2.1820705	THAT REALIZATION	-0.012197109
-2.2987	A ONE	-0.012197109
-2.466891	THE ONE	-0.012197109
-2.1542537	NO ONE	-0.012197109
-0.851428	ONLY ONE	-0.012197109
-1.0138543	CELSUS ONE	-0.012197109
-1.3022958	ANY ONE	-0.012197109
-1.8490032	ONE EYED	-0.012197109
-2.6336775	THE PEOPLE	-0.012197109
-1.0192146	EYED PEOPLE	-0.012197109
-1.4815164	UP PEOPLE	-0.012197109
-1.0192146	DRESSED PEOPLE	-0.012197109
-1.6156375	PEOPLE LIVING	-0.012197109
-1.9010972	<s> IN	-0.012197109
-1.7566636	IS IN	-0.012197109
-1.73644	AND IN	-0.012197109
-1.5237048	ONE IN	-0.012197109
-1.3977699	PEOPLE IN	-0.012197109
-0.95654196	LIVING IN	-0.012197109
-1.3977699	BEEN IN	-0.012197109
-1.1970993	PUT IN	-0.012197109
-1.3201183	THAN IN	-0.012197109
-0.95654196	ENTIRELY IN	-0.012197109
-1.6010314	BUT IN	-0.012197109
-0.95654196	DISCREPANCY IN	-0.012197109
-0.95654196	WEEK IN	-0.012197109
-0.95654196	SUN IN	-0.012197109
-1.1970993	PRESENCE IN	-0.012197109
-1.3201183	FAITH IN	-0.012197109
-0.95654196	MISERY IN	-0.012197109
-1.4923955	SAID IN	-0.012197109
-0.95654196	ANYTHING IN	-0.012197109
-0.95654196	TONIC IN	-0.012197109
-0.95654196	LECTURE IN	-0.012197109
-0.30677837	BELIEVE IN	-0.012197109
-0.95654196	BEE IN	-0.012197109
-1.1970993	MEN IN	-0.012197109
-0.95654196	GENTLEMAN IN	-0.012197109
-0.95654196	CLAMORING IN	-0.012197109
-1.4884946	APOLLO IN	-0.012197109
-0.95654196	SEVERITY IN	-0.012197109
-0.95654196	BASK IN	-0.012197109
-2.443468	IN INDIA	-0.012197109
-1.0219198	INDIA HAS	-0.012197109
-1.0219198	OESTERA HAS	-0.012197109
-1.0219198	HISTORIAN HAS	-0.012197109
-1.4894066	HAS BEEN	-0.012197109
-0.9644716	HAVE BEEN	-0.012197109
-1.0219198	PRAYERS BEEN	-0.012197109
-1.6156375	BEEN REPLACED	-0.012197109
-2.1595511	AND BY	-0.012197109
-1.0059357	REPLACED BY	-0.012197109
-1.0059357	OBSERVED BY	-0.012197109
-1.4440819	TAKEN BY	-0.012197109
-1.0059357	MAINTAINED BY	-0.012197109
-1.0059357	CAUSED BY	-0.012197109
-1.7432538	YOU BY	-0.012197109
-1.0059357	ANIMATED BY	-0.012197109
-1.0059357	CONSCIENCE BY	-0.012197109
-1.9569116	BY ACCURATE	-0.012197109
-1.0234702	ACCURATE INFORMATION	-0.012197109
-1.02137	INFORMATION CONCERNING	-0.012197109
-1.4877951	HOMER CONCERNING	-0.012197109
-2.832691	THE HINDOOS	-0.012197109
-2.45656	IS PRECISELY	-0.012197109
-2.832691	THE USE	-0.012197109
-2.3131618	TO WHICH	-0.012197109
-1.4623904	IN WHICH	-0.012197109
-1.0111986	REFLECTION WHICH	-0.012197109
-1.9212068	BUT WHICH	-0.012197109
-1.0111986	DECIDE WHICH	-0.012197109
-1.0111986	SAME WHICH	-0.012197109
-1.7300819	ME WHICH	-0.012197109
-1.9093031	WHICH MYTHS	-0.012197109
-2.3769398	<s> HAVE	-0.012197109
-2.2288425	TO HAVE	-0.012197109
-1.5507708	THEY HAVE	-0.012197109
-1.0059357	MYTHS HAVE	-0.012197109
-1.9258195	WE HAVE	-0.012197109
-1.7571704	WHO HAVE	-0.012197109
-1.702735	WOULD HAVE	-0.012197109
-1.0059357	CLAIMS HAVE	-0.012197109
-1.0059357	MUST HAVE	-0.012197109
-1.6074829	BEEN PUT	-0.012197109
-1.6992047	ARE PUT	-0.012197109
-2.0960326	IS JESUS	-0.012197109
-1.4691188	OF JESUS	-0.034919877
-1.7887495	THIS JESUS	-0.012197109
-2.1625326	IN JESUS	-0.012197109
-0.89894694	ABOUT JESUS	-0.012197109
-1.277161	INFANT JESUS	-0.012197109
-1.8038737	IF JESUS	-0.012197109
-1.277161	MYTHICAL JESUS	-0.012197109
-1.277161	SEE JESUS	-0.012197109
-1.0007358	SAVIOR JESUS	-0.012197109
-1.0007358	MAKE JESUS	-0.012197109
-2.0022135	<s> THERE	0
-1.966532	BUT THERE	-0.012197109
-1.3075022	YET THERE	-0.012197109
-1.3075022	PROMISE THERE	-0.012197109
-1.0165262	GOING THERE	-0.012197109
-2.5050042	A FACULTY	-0.012197109
-2.0354025	FOR FICTION	-0.012197109
-1.4668787	<s> IT	-0.030279184
-1.9945463	IS IT	-0.012197109
-2.0443206	TO IT	-0.012197109
-1.4030435	THAN IT	-0.012197109
-1.7197644	ABOUT IT	-0.012197109
-1.5851092	DO IT	-0.012197109
-1.7931592	BE IT	-0.012197109
-0.9905189	WHILE IT	-0.012197109
-0.93940884	IF IT	-0.012197109
-1.2580507	FREE IT	-0.012197109
-0.9905189	THOUGHT IT	-0.012197109
-0.9905189	DOGMA IT	-0.012197109
-0.9905189	WORK IT	-0.012197109
-1.4296824	LIGHT IT	-0.012197109
-0.9905189	ACCEPTED IT	-0.012197109
-2.2567043	IT THINKS	-0.012197109
-1.0234702	THINKS LESS	-0.012197109
-1.0219198	LESS THAN	-0.012197109
-1.609607	MORE THAN	-0.012197109
-1.7763741	HAND THAN	-0.012197109
-2.2567043	IT GUESSES	-0.012197109
-2.45656	IS REFLECTION	-0.012197109
-1.9093031	WHICH INTRODUCES	-0.012197109
-2.5050042	A BIT	-0.012197109
-1.0165262	BIT INTO	-0.012197109
-1.0165262	FLED INTO	-0.012197109
-1.5890964	TRUTH INTO	-0.012197109
-1.0165262	PUSHING INTO	-0.012197109
-1.0165262	SILENTLY INTO	-0.012197109
-2.0286784	THE MOUTH	-0.05889745
-2.1103618	JESUS MOUTH	-0.012197109
-2.6940975	OF IMAGINATION	-0.012197109
-1.0234702	IMAGINATION CURBING	-0.012197109
-1.4939713	ITS PACE	-0.012197109
-2.4984758	AND SUBDUING	-0.012197109
-1.4939713	ITS RESTLESS	-0.012197109
-1.0234702	RESTLESS SPIRIT	-0.012197109
-1.904588	<s> WE	-0.012197109
-1.4299672	UNTIL WE	-0.012197109
-1.9274366	JESUS WE	-0.012197109
-1.277161	BEINGS WE	-0.012197109
-1.0007358	RAINBOW WE	-0.012197109
-1.4299672	AGAIN WE	-0.012197109
-1.277161	WHEN WE	-0.012197109
-1.8038737	IF WE	-0.012197109
-1.6086863	ARE WE	-0.012197109
-1.6850226	WHAT WE	-0.012197109
-1.5328059	TRUTH WE	-0.012197109
-2.0991268	WE FILL	-0.012197109
-2.832691	THE SPACE	-0.012197109
-1.0111986	SPACE ABOUT	-0.012197109
-1.0111986	IGNORANT ABOUT	-0.012197109
-0.31337988	NOTHING ABOUT	-0.012197109
-1.0111986	CHAPTERS ABOUT	-0.012197109
-1.5695109	TRUTH ABOUT	-0.012197109
-1.0111986	CRITICISM ABOUT	-0.012197109
-1.0111986	LOOKING ABOUT	-0.012197109
-2.4419084	AND OVER	-0.012197109
-1.773259	HAND OVER	-0.012197109
-1.317019	OVER US	-0.012197109
-0.31452954	LET US	-0.012197109
-2.1846642	WITH SPIRITS	-0.012197109
-2.723391	THE FAIRIES	-0.012197109
-1.02137	SPIRITS FAIRIES	-0.012197109
-2.36418	IS GODS	-0.012197109
-1.3127717	FAIRIES GODS	-0.012197109
-1.4815164	THEIR GODS	-0.012197109
-1.0192146	WORSHIPPED GODS	-0.012197109
-1.6156375	OTHER INVISIBLE	-0.012197109
-2.4984758	AND AIRY	-0.012197109
-1.02137	AIRY BEINGS	-0.012197109
-1.02137	INTELLIGENT BEINGS	-0.012197109
-2.0991268	WE COVET	-0.012197109
-2.832691	THE RAINBOW	-0.012197109
-2.0991268	WE REACH	-0.012197109
-1.0234702	REACH OUT	-0.012197109
-2.0286784	THE MOON	-0.05889745
-1.317019	FULL MOON	-0.012197109
-2.5310218	<s> OUR	-0.012197109
-2.4652264	OF OUR	-0.012197109
-1.4661531	GIVEN OUR	-0.012197109
-1.9518602	FOR OUR	-0.012197109
-1.0138543	EASE OUR	-0.012197109
-1.3022958	YES OUR	-0.012197109
-1.773259	OUR FEET	-0.012197109
-1.6074829	DIVINE FEET	-0.012197109
-2.5975137	<s> DO	-0.012197109
-1.3075022	FEET DO	-0.012197109
-1.5042875	I DO	-0.05889745
-1.3075022	TIME DO	-0.012197109
-1.3075022	WILL DO	-0.012197109
-2.2014873	<s> NOT	-0.012197109
-1.4935989	IS NOT	-0.012197109
-1.4843698	AND NOT	-0.012197109
-1.5071795	MAN NOT	-0.012197109
-1.1953486	WAS NOT	-0.012197109
-0.75962365	DO NOT	-0.012197109
-0.9930507	MATURE NOT	-0.012197109
-1.1758436	HE NOT	-0.012197109
-1.6332035	WERE NOT	-0.012197109
-0.9930507	FALLS NOT	-0.012197109
-1.647915	WOULD NOT	-0.012197109
-1.26275	DID NOT	-0.012197109
-0.9930507	DETERMINED NOT	-0.012197109
-0.9930507	DOES NOT	-0.012197109
-2.2993944	NOT REALLY	-0.012197109
-1.02137	UNCERTAIN REALLY	-0.012197109
-1.3211776	REALLY BEGIN	-0.012197109
-1.7073177	TO TOUCH	-0.012197109
-2.832691	THE FIRM	-0.012197109
-1.0234702	FIRM GROUND	-0.012197109
-1.954531	HAVE REACHED	-0.012197109
-2.832691	THE YEARS	-0.012197109
-2.6940975	OF DISCRETION	-0.012197109
-1.609607	MAN HAD	-0.012197109
-2.235699	IT HAD	-0.012197109
-2.4220276	I HAD	-0.012197109
-1.4939713	HAD MATURED	-0.012197109
-2.838029	<s> GROWN	-0.012197109
-1.0219198	GROWN UP	-0.012197109
-1.0219198	BUILD UP	-0.012197109
-1.0219198	BUILDING UP	-0.012197109
-1.6156375	PEOPLE CREATE	-0.012197109
-2.832691	THE CRADLE	-0.012197109
-2.832691	THE WOMB	-0.012197109
-1.8411753	OF ALL	-0.012197109
-1.7018299	AT ALL	-0.012197109
-2.417947	IN ALL	-0.012197109
-2.4984758	AND FAITHS	-0.012197109
-2.6940975	OF MANKIND	-0.012197109
-2.832691	THE SCHOOL	-0.012197109
-2.832691	THE BIRTHPLACE	-0.012197109
-2.7507708	<s> RELIGION	-0.012197109
-1.773259	OUR RELIGION	-0.012197109
-2.723391	THE DISCUSSION	-0.012197109
-1.02137	CANDID DISCUSSION	-0.012197109
-2.4512875	A SUBJECT	-0.012197109
-1.9343231	THIS SUBJECT	-0.012197109
-1.2311662	<s> I	-0.012197109
-1.2094594	BECAUSE I	-0.012197109
-1.47453	THEN I	-0.012197109
-1.2094594	REALIZED I	-0.012197109
-1.6324325	WHICH I	-0.012197109
-1.7069947	JESUS I	-0.012197109
-1.4175571	GODS I	-0.012197109
-1.2094594	SUBJECT I	-0.012197109
-1.7345388	NO I	-0.012197109
-1.2094594	WAY I	-0.012197109
-1.6240242	AS I	-0.012197109
-1.2094594	WORSHIP I	-0.012197109
-1.6330729	BUT I	-0.012197109
-1.6240242	IF I	-0.012197109
-1.2094594	ANSWERED I	-0.012197109
-1.2094594	NAME I	-0.012197109
-0.9636023	SO I	-0.012197109
-0.75955766	ME I	-0.012197109
-1.2094594	CITY I	-0.012197109
-0.9636023	LATER I	-0.012197109
-0.9636023	GRATEFULLY I	-0.012197109
-0.9636023	TOO I	-0.012197109
-1.4175571	IDOL I	-0.012197109
-1.3366035	HEART I	-0.012197109
-0.9636023	ONCE I	-0.012197109
-0.9636023	WORSHIPPERS I	-0.012197109
-2.4575455	I APPEAL	-0.012197109
-2.832691	THE MATURE	-0.012197109
-1.4722302	<s> HE	-0.049147002
-1.879871	THAT HE	-0.012197109
-1.6004158	ALL HE	-0.012197109
-1.7614528	AS HE	-0.012197109
-1.7918835	BUT HE	-0.012197109
-1.4096196	GIVE HE	-0.012197109
-1.6332035	HAND HE	-0.012197109
-1.654053	WHAT HE	-0.012197109
-1.26275	WILL HE	-0.012197109
-1.26275	DID HE	-0.012197109
-0.9930507	OH HE	-0.012197109
-1.26275	YES HE	-0.012197109
-1.6004158	APOLLO HE	-0.012197109
-0.9930507	PERSON HE	-0.012197109
-1.6156375	GODS MOUTHPIECE	-0.012197109
-1.8013241	<s> NO	-0.012197109
-1.9123408	IS NO	-0.012197109
-1.8983861	AND NO	-0.012197109
-1.7947047	THAT NO	-0.012197109
-1.8406918	NO NO	-0.012197109
-1.4675672	WORLD NO	-0.012197109
-1.3776921	GIVE NO	-0.012197109
-0.980537	ABSOLUTELY NO	-0.012197109
-1.239746	TODAY NO	-0.012197109
-0.980537	ORPHANS NO	-0.012197109
-0.980537	MOTHERS NO	-0.012197109
-0.980537	SHIPWRECKS NO	-0.012197109
-0.980537	FLOODS NO	-0.012197109
-0.980537	FAMINES NO	-0.012197109
-0.980537	DISEASE NO	-0.012197109
-0.980537	CHILDREN NO	-0.012197109
-0.980537	INSANITY NO	-0.012197109
-0.980537	WARS NO	-0.012197109
-0.980537	CRIME NO	-0.012197109
-1.8351388	ONE MAY	-0.012197109
-2.4100678	I MAY	-0.012197109
-1.3211776	MAY DISAGREE	-0.012197109
-1.713847	OF HIM	-0.05889745
-2.1921203	TO HIM	-0.012197109
-1.9738827	WITH HIM	-0.012197109
-1.2820729	TOUCH HIM	-0.012197109
-1.4551543	BEFORE HIM	-0.012197109
-1.4369671	AGAINST HIM	-0.012197109
-1.5416955	TOLD HIM	-0.012197109
-1.0033278	CALLING HIM	-0.012197109
-1.0033278	PRODUCE HIM	-0.012197109
-1.0033278	TOWARD HIM	-0.012197109
-2.5975137	<s> ONLY	-0.012197109
-1.9855226	THE ONLY	-0.012197109
-2.1216898	WAS ONLY	-0.012197109
-1.3723482	NOT ONLY	-0.012197109
-1.4737668	HAD ONLY	-0.012197109
-1.8394978	ONLY WAY	-0.012197109
-1.4877951	THEIR WAY	-0.012197109
-1.3211776	MAY COMMAND	-0.012197109
-1.02137	COMMAND YOUR	-0.012197109
-1.02137	COUNT YOUR	-0.012197109
-1.3211776	YOUR RESPECT	-0.012197109
-1.4204127	TO BE	-0.012197082
-1.4737668	US BE	-0.012197109
-2.2211268	NOT BE	-0.012197109
-1.0165262	SHOULD BE	-0.012197109
-0.8495274	WOULD BE	-0.012197109
-2.0354025	BE REASONABLE	-0.012197109
-2.7507708	<s> LET	-0.012197109
-1.02137	FIRST LET	-0.012197109
-1.4939713	US PLACE	-0.012197109
-1.0234702	PLACE OURSELVES	-0.012197109
-1.0234702	OURSELVES ENTIRELY	-0.012197109
-2.832691	THE HANDS	-0.012197109
-2.6484509	OF EVIDENCE	-0.012197109
-2.7495065	THE EVIDENCE	-0.012197109
-1.3465309	NO EVIDENCE	-0.05889745
-1.9023778	<s> AS	-0.012197109
-1.9890445	JESUS AS	-0.012197109
-1.900203	BUT AS	-0.012197109
-1.0085592	TIMES AS	-0.012197109
-1.2920667	EQUINOX AS	-0.012197109
-1.7054133	HAND AS	-0.012197109
-1.2920667	MYTHICAL AS	-0.012197109
-1.5600398	IDOL AS	-0.012197109
-1.954531	AS INTELLIGENT	-0.012197109
-1.4939713	KNOW WHETHER	-0.012197109
-2.133522	JESUS WHOSE	-0.012197109
-2.723391	THE WORSHIP	-0.012197109
-1.02137	WHOSE WORSHIP	-0.012197109
-1.851757	ONLY COSTING	-0.012197109
-2.1071103	THE WORLD	-0.012197109
-1.6156375	WORLD MILLIONS	-0.012197109
-2.832691	THE PEOPLES	-0.012197109
-1.0234702	PEOPLES MONEY	-0.012197109
-1.3939722	<s> BUT	-0.012197109
-2.035579	JESUS BUT	-0.012197109
-1.0138543	MONEY BUT	-0.012197109
-1.3022958	EQUINOX BUT	-0.012197109
-1.3022958	DOWN BUT	-0.012197109
-1.0138543	PITY BUT	-0.012197109
-2.4086273	IS ALSO	-0.012197109
-2.0117364	BUT ALSO	-0.012197109
-1.3211776	ALSO DRAWING	-0.012197109
-2.305206	HIS SERVICE	-0.012197109
-2.723391	THE TIME	-0.012197109
-2.2691634	HIS TIME	-0.012197109
-2.832691	THE ENERGIES	-0.012197109
-2.832691	THE AFFECTION	-0.012197109
-2.832691	THE DEVOTION	-0.012197109
-2.832691	THE LABOR	-0.012197109
-2.6940975	OF HUMANITY	-0.012197109
-1.5791934	MYTH OR	-0.012197109
-1.4661531	UP OR	-0.012197109
-1.3022958	NAME OR	-0.012197109
-1.0138543	DIRECTLY OR	-0.012197109
-1.0138543	PREACHER OR	-0.012197109
-1.0138543	COURAGE OR	-0.012197109
-2.5050042	A REALITY	-0.012197109
-1.5761245	A NUMBER	-0.05889745
-1.02137	CAN NUMBER	-0.012197109
-1.6156375	OTHER DATES	-0.012197109
-1.5791934	PEOPLE WERE	-0.012197109
-2.139354	IT WERE	-0.012197109
-1.0138543	DATES WERE	-0.012197109
-1.7978241	WHO WERE	-0.012197109
-1.7883747	YOU WERE	-0.012197109
-1.0138543	VESTMENTS WERE	-0.012197109
-1.7852566	WERE OBSERVED	-0.012197109
-2.048647	THE CHRISTIAN	-0.012197109
-1.3211776	CHRISTIAN CHURCH	-0.012197109
-2.723391	THE VARIOUS	-0.012197109
-1.6992047	AT VARIOUS	-0.012197109
-1.3211776	VARIOUS TIMES	-0.012197109
-2.048647	THE BIRTHDAY	-0.05889745
-2.832691	THE GOSPELS	-0.012197109
-1.0219198	GOSPELS GIVE	-0.012197109
-1.3181059	TODAY GIVE	-0.012197109
-1.0219198	INDIRECTLY GIVE	-0.012197109
-2.303435	NO DATE	-0.012197109
-2.4419084	AND APPEAR	-0.012197109
-2.1103618	JESUS APPEAR	-0.012197109
-2.0354025	BE QUITE	-0.012197109
-1.0234702	QUITE UNCERTAIN	-0.012197109
-1.3211776	REALLY IGNORANT	-0.012197109
-1.9917269	<s> YET	-0.012197109
-1.4894066	BORN ON	-0.012197109
-2.0209322	BE ON	-0.012197109
-1.3181059	ALWAYS ON	-0.012197109
-2.723391	THE DAY	-0.012197109
-2.1538353	THAT DAY	-0.012197109
-2.7720168	<s> WHY	-0.012197109
-1.0219198	ARGUE WHY	-0.012197109
-1.0219198	EXPLAIN WHY	-0.012197109
-1.951817	THIS DISCREPANCY	-0.012197109
-2.5050042	A HISTORICAL	-0.012197109
-1.0234702	HISTORICAL DOCUMENT	-0.012197109
-2.6053057	TO SAY	-0.012197109
-1.02137	SAY NOTHING	-0.012197109
-1.317019	SAYS NOTHING	-0.012197109
-1.906552	ABOUT INSPIRATION	-0.012197109
-2.7720168	<s> AGAIN	-0.012197109
-1.3181059	HERE AGAIN	-0.012197109
-1.4894066	ASKED AGAIN	-0.012197109
-2.18067	WAS MATTHEW	-0.012197109
-1.4877951	AGAIN MATTHEW	-0.012197109
-1.317019	MATTHEW SAYS	-0.012197109
-1.02137	LUKE SAYS	-0.012197109
-2.6053057	TO ESCAPE	-0.012197109
-2.832691	THE EVIL	-0.012197109
-1.0234702	EVIL DESIGNS	-0.012197109
-2.6940975	OF HEROD	-0.012197109
-2.4419084	AND MARY	-0.012197109
-1.02137	HEROD MARY	-0.012197109
-2.4984758	AND JOSEPH	-0.012197109
-2.048647	THE INFANT	-0.012197109
-2.133522	JESUS FLED	-0.012197109
-1.7120944	INTO EGYPT	-0.012197109
-1.0234702	EGYPT LUKE	-0.012197109
-1.951817	THIS HURRIED	-0.012197109
-1.0234702	HURRIED FLIGHT	-0.012197109
-1.0234702	FLIGHT NOR	-0.012197109
-2.6940975	OF HERODS	-0.012197109
-1.0234702	HERODS INTENTION	-0.012197109
-2.6053057	TO KILL	-0.012197109
-1.3211776	INFANT MESSIAH	-0.012197109
-1.9917269	<s> WHEN	-0.012197109
-2.0991268	WE COME	-0.012197109
-1.5188215	IS MORE	-0.012197109
-2.7495065	THE MORE	-0.012197109
-1.7018299	HOW MORE	-0.012197109
-1.6156375	MORE IMPORTANT	-0.012197109
-1.0234702	IMPORTANT CHAPTERS	-0.012197109
-2.0991268	WE MEET	-0.012197109
-2.1846642	WITH GREATER	-0.012197109
-1.0234702	GREATER DIFFICULTIES	-0.012197109
-2.838029	<s> WHILE	-0.012197109
-2.45656	IS ALWAYS	-0.012197109
-2.4512875	A FRIDAY	-0.012197109
-1.4877951	GOOD FRIDAY	-0.012197109
-2.832691	THE CRUCIFIXION	-0.012197109
-2.45656	IS COMMEMORATED	-0.012197109
-2.832691	THE WEEK	-0.012197109
-1.3211776	DAY OCCURS	-0.012197109
-1.0234702	OCCURS VARIES	-0.012197109
-2.3091798	NOT FROM	-0.012197109
-2.0171447	BUT FROM	-0.012197109
-1.0219198	VARIES FROM	-0.012197109
-2.5399885	TO YEAR	-0.012197109
-1.4877951	FROM YEAR	-0.012197109
-2.7720168	<s> GOOD	-0.012197109
-2.7495065	THE GOOD	-0.012197109
-1.7763741	OUR GOOD	-0.012197109
-1.3211776	FRIDAY FALLS	-0.012197109
-2.3091798	NOT BEFORE	-0.012197109
-1.0219198	PAGE BEFORE	-0.012197109
-1.0219198	KNEELING BEFORE	-0.012197109
-2.048647	THE SPRING	-0.05889745
-1.0234702	SPRING EQUINOX	-0.012197109
-1.954531	AS SOON	-0.012197109
-1.0234702	SOON AFTER	-0.012197109
-2.723391	THE FULL	-0.012197109
-1.4877951	GIVE FULL	-0.012197109
-1.3211776	MOON ALLOWS	-0.012197109
-1.0234702	ALLOWS THUS	-0.012197109
-1.0234702	THUS MAKING	-0.012197109
-2.832691	THE CALCULATION	-0.012197109
-2.6053057	TO DEPEND	-0.012197109
-1.02137	DEPEND UPON	-0.012197109
-1.02137	PRESS UPON	-0.012197109
-2.832691	THE POSITION	-0.012197109
-2.832691	THE SUN	-0.012197109
-2.832691	THE ZODIAC	-0.012197109
-2.832691	THE PHASES	-0.012197109
-2.832691	THE PAGAN	-0.012197109
-1.0234702	PAGAN OESTERA	-0.012197109
-1.4939713	HAS BECOME	-0.012197109
-1.3211776	CHRISTIAN EASTER	-0.012197109
-2.832691	THE ABSENCE	-0.012197109
-1.4939713	EVIDENCE ORIGIN	-0.012197109
-1.0234702	ORIGIN OFFERS	-0.012197109
-2.832691	THE FOLLOWING	-0.012197109
-1.0234702	FOLLOWING METAPHYSICAL	-0.012197109
-1.0234702	METAPHYSICAL ARGUMENTS	-0.012197109
-1.0219198	ARGUMENTS AGAINST	-0.012197109
-1.0219198	CONSPIRACY AGAINST	-0.012197109
-1.0219198	REMEDY AGAINST	-0.012197109
-2.832691	THE SCEPTICAL	-0.012197109
-1.0234702	SCEPTICAL CELSUS	-0.012197109
-1.6910702	<s> IF	-0.012197109
-1.4661531	GIVEN IF	-0.012197109
-1.4661531	KNOW IF	-0.012197109
-2.2829735	AND IF	-0.012197109
-1.0138543	MOREOVER IF	-0.012197109
-1.7324228	SAID IF	-0.012197109
-1.6766053	THEN ARE	-0.012197109
-2.0229053	WE ARE	-0.012197109
-1.0165262	UTTERANCES ARE	-0.012197109
-1.8045205	YOU ARE	-0.012197109
-1.0165262	INFIDEL ARE	-0.012197109
-1.9385828	HAVE ANY	-0.012197109
-1.02137	FIND ANY	-0.012197109
-1.3211776	ANY MYTHOLOGY	-0.012197109
-2.189137	HE SEEMS	-0.012197109
-2.6053057	TO ARGUE	-0.012197109
-1.4939713	WHY OBJECT	-0.012197109
-2.6053057	TO ADDING	-0.012197109
-2.832691	THE IMMEDIATE	-0.012197109
-1.0234702	IMMEDIATE COMPANIONS	-0.012197109
-1.5992306	OTHER HAND	-0.012197109
-1.4027125	HIS HAND	-0.012197109
-2.3765254	IN HAND	-0.012197109
-1.0192146	VIRTUALLY HAND	-0.012197109
-2.4512875	A MYTHICAL	-0.012197109
-1.9385828	AS MYTHICAL	-0.012197109
-2.45656	IS HIMSELF	-0.012197109
-1.9323869	<s> WHO	-0.012197109
-2.2829735	AND WHO	-0.012197109
-1.7883747	ONE WHO	-0.012197109
-1.3022958	MATTHEW WHO	-0.012197109
-1.0138543	COURTIERS WHO	-0.012197109
-1.0138543	NEIGHBOR WHO	-0.012197109
-2.2087305	WAS MARK	-0.012197109
-1.773259	WERE JOHN	-0.012197109
-1.02137	PAUL JOHN	-0.012197109
-2.7720168	<s> PETER	-0.012197109
-1.9427094	IF PETER	-0.012197109
-1.3181059	JOHN PETER	-0.012197109
-1.4877951	PETER JUDAS	-0.012197109
-1.02137	JAMES JUDAS	-0.012197109
-2.45656	IS ABSOLUTELY	-0.012197109
-1.6074829	THEY EVER	-0.012197109
-1.4877951	PETER EVER	-0.012197109
-1.3211776	EVER EXISTED	-0.012197109
-1.3211776	EVER WENT	-0.012197109
-2.6053057	TO ROME	-0.012197109
-1.5829128	A NEW	-0.012197109
-1.3211776	NEW DOCTRINE	-0.012197109
-2.0403275	<s> HOW	-0.012197109
-1.0219198	DOCTRINE HOW	-0.012197109
-1.609607	GUIDE HOW	-0.012197109
-2.303435	NO HISTORIAN	-0.012197109
-1.4894066	HAS TAKEN	-0.012197109
-2.0209322	BE TAKEN	-0.012197109
-1.3181059	WHISPERED TAKEN	-0.012197109
-1.4939713	TAKEN NOTE	-0.012197109
-2.7507708	<s> HERE	-0.012197109
-2.015901	BE HERE	-0.012197109
-2.5399885	TO SEE	-0.012197109
-2.0747635	WE SEE	-0.012197109
-2.723391	THE PRESENCE	-0.012197109
-1.02137	RADIANT PRESENCE	-0.012197109
-2.4100678	I SAW	-0.012197109
-1.8394978	WHO SAW	-0.012197109
-2.6484509	OF THEM	-0.012197109
-1.3181059	SAW THEM	-0.012197109
-1.0219198	PERMIT THEM	-0.012197109
-1.4939713	PETER PAUL	-0.012197109
-1.3211776	JOHN JAMES	-0.012197109
-1.3211776	JUDAS OCCUPY	-0.012197109
-2.832691	THE STAGE	-0.012197109
-1.0234702	STAGE ALMOST	-0.012197109
-1.0234702	ALMOST EXCLUSIVELY	-0.012197109
-2.420697	IS IMPOSSIBLE	-0.012197109
-1.4894066	SUCH IMPOSSIBLE	-0.012197109
-1.0219198	MOST IMPOSSIBLE	-0.012197109
-2.6053057	TO EXPLAIN	-0.012197109
-2.832691	THE CONTEMPORARIES	-0.012197109
-2.832691	THE AUTHORS	-0.012197109
-2.4984758	AND HISTORIANS	-0.012197109
-2.337946	NOT TAKE	-0.012197109
-1.0234702	TAKE NOTICE	-0.012197109
-2.7507708	<s> COULD	-0.012197109
-1.1537447	JESUS COULD	-0.012197109
-2.5050042	A CONSPIRACY	-0.012197109
-1.7092994	HOW ELSE	-0.012197109
-1.951817	THIS UNANIMOUS	-0.012197109
-1.0234702	UNANIMOUS SILENCE	-0.012197109
-2.0354025	BE ACCOUNTED	-0.012197109
-2.6053057	TO DECIDE	-0.012197109
-2.832691	THE NUMEROUS	-0.012197109
-1.0234702	NUMEROUS CANDIDATES	-0.012197109
-2.6336775	THE DIVINE	-0.012197109
-1.9966669	FOR DIVINE	-0.012197109
-2.1535141	WAS DIVINE	-0.012197109
-2.2348833	HIS DIVINE	-0.012197109
-1.6156375	DIVINE HONORS	-0.012197109
-1.0234702	HONORS SHOULD	-0.012197109
-1.7852566	OUR VOTES	-0.012197109
-2.4560475	AND SUCH	-0.012197109
-1.9461089	BY SUCH	-0.012197109
-2.2758937	NO SUCH	-0.012197109
-2.464747	A FAITH	-0.012197109
-2.6484509	OF FAITH	-0.012197109
-2.087392	MY FAITH	-0.012197109
-2.420697	IS NEVER	-0.012197109
-2.4220276	I NEVER	-0.012197109
-1.7792051	WOULD NEVER	-0.012197109
-2.4419084	AND FREE	-0.012197109
-1.4877951	NEVER FREE	-0.012197109
-1.3211776	ALWAYS MAINTAINED	-0.012197109
-2.832691	THE SWORD	-0.012197109
-1.9569116	BY HELL	-0.012197109
-1.0234702	HELL FIRE	-0.012197109
-1.0234702	FIRE HEREAFTER	-0.012197109
-2.832691	THE MOST	-0.012197109
-1.4939713	IMPOSSIBLE UTTERANCES	-0.012197109
-1.4939713	COULD VIRTUALLY	-0.012197109
-2.832691	THE GOVERNMENT	-0.012197109
-2.048647	THE UNIVERSE	-0.012197109
-2.6053057	TO COURTIERS	-0.012197109
-1.954531	HAVE PETITIONS	-0.012197109
-2.6053057	TO PRESS	-0.012197109
-2.305206	HIS ATTENTION	-0.012197109
-2.838029	<s> MOREOVER	-0.012197109
-1.4939713	COULD KEEP	-0.012197109
-2.723391	THE PROMISE	-0.012197109
-2.2691634	HIS PROMISE	-0.012197109
-2.5310218	<s> WOULD	-0.012197109
-1.9518602	FOR WOULD	-0.012197109
-1.6715704	THERE WOULD	-0.012197109
-2.2718556	I WOULD	-0.012197109
-1.3022958	ANSWER WOULD	-0.012197109
-1.7883747	YOU WOULD	-0.012197109
-2.6333117	OF TODAY	-0.012197109
-2.015901	BE TODAY	-0.012197109
-2.303435	NO MISERY	-0.012197109
-2.303435	NO ORPHANS	-0.012197109
-2.303435	NO CHILDLESS	-0.012197109
-1.0234702	CHILDLESS MOTHERS	-0.012197109
-2.303435	NO SHIPWRECKS	-0.012197109
-2.303435	NO FLOODS	-0.012197109
-2.303435	NO FAMINES	-0.012197109
-2.303435	NO DISEASE	-0.012197109
-2.303435	NO CRIPPLED	-0.012197109
-1.0234702	CRIPPLED CHILDREN	-0.012197109
-2.303435	NO INSANITY	-0.012197109
-2.303435	NO WARS	-0.012197109
-2.303435	NO CRIME	-0.012197109
-2.303435	NO WRONG	-0.012197109
-1.9385828	HAVE THESE	-0.012197109
-1.02137	PROPHETS THESE	-0.012197109
-1.3211776	THESE PRAYERS	-0.012197109
-1.6074829	BEEN ANSWERED	-0.012197109
-2.1646833	HE ANSWERED	-0.012197109
-2.157806	WITH MANY	-0.012197109
-1.6992047	HOW MANY	-0.012197109
-2.7507708	<s> SELF	-0.012197109
-1.317019	MANY SELF	-0.012197109
-1.3211776	SELF DELUDED	-0.012197109
-1.0234702	DELUDED PROPHETS	-0.012197109
-1.3211776	THESE EXTRAVAGANT	-0.012197109
-1.0234702	EXTRAVAGANT CLAIMS	-0.012197109
-1.954531	HAVE PRODUCED	-0.012197109
-1.851757	WHO CAN	-0.012197109
-2.832691	THE BITTER	-0.012197109
-1.0234702	BITTER DISAPPOINTMENTS	-0.012197109
-1.0234702	DISAPPOINTMENTS CAUSED	-0.012197109
-1.4939713	IMPOSSIBLE PROMISES	-0.012197109
-2.832691	THE SAME	-0.012197109
-2.832691	THE PREACHERS	-0.012197109
-2.189137	HE PARRIED	-0.012197109
-1.3498788	HIS ANSWER	-0.012197109
-1.3211776	MANY WORDS	-0.012197109
-1.7092994	AT LENGTH	-0.012197109
-1.5804129	I SAID	-0.042766236
-1.2745894	HE SAID	-0.012197109
-1.0219198	LENGTH SAID	-0.012197109
-2.832691	THE PROVISION	-0.012197109
-2.0647204	THAT WHAT	-0.012197109
-1.5791934	WORLD WHAT	-0.012197109
-1.0138543	JUST WHAT	-0.012197109
-1.5791934	GUIDE WHAT	-0.012197109
-1.0138543	KNOWING WHAT	-0.012197109
-1.0138543	MYSELF WHAT	-0.012197109
-2.0747635	WE ASKED	-0.012197109
-1.5174748	I ASKED	-0.012197109
-1.6389618	A GOD	-0.042766236
-2.6484509	OF GOD	-0.012197109
-1.9427094	IF GOD	-0.012197109
-1.6184536	GOD THOUGHT	-0.012197109
-1.954531	IF YE	-0.012197109
-2.5399885	TO ASK	-0.012197109
-1.02137	YE ASK	-0.012197109
-1.3211776	ASK ANYTHING	-0.012197109
-1.6277702	TO MY	-0.012197109
-2.1251397	AND MY	-0.012197109
-1.8049095	THIS MY	-0.012197109
-1.5053077	IN MY	-0.012197109
-1.784781	ABOUT MY	-0.012197109
-1.4369671	ASKED MY	-0.012197109
-1.5416955	TOLD MY	-0.012197109
-1.0033278	PROTESTED MY	-0.012197109
-1.0033278	INTERRUPTED MY	-0.012197109
-1.0033278	OBSERVING MY	-0.012197109
-2.2691634	HIS NAME	-0.012197109
-2.0817559	MY NAME	-0.012197109
-2.0363076	<s> WILL	0
-2.4100678	I WILL	-0.012197109
-2.337946	NOT SO	-0.012197109
-2.3903913	AND TOLD	-0.012197109
-1.9227271	HAVE TOLD	-0.012197109
-2.3660002	I TOLD	-0.012197109
-1.0192146	WHISPER TOLD	-0.012197109
-1.931079	FOR YOU	-0.012197109
-1.6610686	DO YOU	-0.012197109
-1.8677671	IF YOU	-0.012197109
-1.2971511	UNIVERSE YOU	-0.012197109
-1.5695109	TOLD YOU	-0.012197109
-1.2971511	TELL YOU	-0.012197109
-1.0111986	COURSE YOU	-0.012197109
-2.7507708	<s> DID	-0.012197109
-2.1538353	THAT DID	-0.012197109
-2.337946	NOT MEAN	-0.012197109
-1.0234702	MEAN JUST	-0.012197109
-1.3211776	SELF EFFORT	-0.012197109
-2.337946	NOT PRAYER	-0.012197109
-2.832691	THE REMEDY	-0.012197109
-1.4939713	AGAINST IGNORANCE	-0.012197109
-1.0234702	IGNORANCE SLAVERY	-0.012197109
-1.0234702	SLAVERY POVERTY	-0.012197109
-2.4512875	A MORAL	-0.012197109
-2.4419084	AND MORAL	-0.012197109
-1.3211776	MORAL DEGRADATION	-0.012197109
-1.5232726	I AM	-0.012197109
-1.3211776	AM DETERMINED	-0.012197109
-2.45656	IS POSSIBLE	-0.012197109
-2.832691	THE WHOLE	-0.012197109
-2.5784326	OF TRUTH	-0.012197109
-2.1265204	THAT TRUTH	-0.012197109
-1.0192146	WHOLE TRUTH	-0.012197109
-1.0192146	CLAPPING TRUTH	-0.012197109
-2.6053057	TO COMMUNICATE	-0.012197109
-2.5399885	TO OTHERS	-0.012197109
-1.317019	EACH OTHERS	-0.012197109
-1.3211776	MORAL TONIC	-0.012197109
-2.048647	THE OPEN	-0.012197109
-2.4984758	AND CANDID	-0.012197109
-1.317019	SUBJECT LIKE	-0.012197109
-1.02137	WORKS LIKE	-0.012197109
-2.5050042	A MULTITUDE	-0.012197109
-2.6940975	OF PLATITUDES	-0.012197109
-1.4939713	NEVER DELIVER	-0.012197109
-2.5050042	A LECTURE	-0.012197109
-2.337946	NOT EITHER	-0.012197109
-1.0234702	EITHER DIRECTLY	-0.012197109
-1.7852566	OR INDIRECTLY	-0.012197109
-1.3211776	FREE EXPRESSION	-0.012197109
-2.443468	IN EVERYTHING	-0.012197109
-2.45656	IS WORTHY	-0.012197109
-2.2993944	NOT BELIEVE	-0.012197109
-2.4100678	I BELIEVE	-0.012197109
-2.443468	IN DOGMA	-0.012197109
-2.443468	IN FREEDOM	-0.012197109
-2.838029	<s> OH	-0.012197109
-2.2691634	HIS TEARS	-0.012197109
-2.1646833	HE TEARS	-0.012197109
-1.317019	TEARS DOWN	-0.012197109
-1.02137	TEARING DOWN	-0.012197109
-2.0327275	BUT DOES	-0.012197109
-2.337946	NOT BUILD	-0.012197109
-2.45656	IS ANOTHER	-0.012197109
-1.0234702	ANOTHER CRITICISM	-0.012197109
-2.1036482	MY WORK	-0.012197109
-2.723391	THE TRUE	-0.012197109
-1.3826137	NOT TRUE	-0.05889745
-2.303435	NO PREACHER	-0.012197109
-2.464747	A PRIEST	-0.012197109
-2.7495065	THE PRIEST	-0.012197109
-1.7763741	OR PRIEST	-0.012197109
-1.6156375	MORE CONSTRUCTIVE	-0.012197109
-2.838029	<s> CLAPPING	-0.012197109
-1.7120944	INTO JAIL	-0.012197109
-1.0234702	JAIL GAGGING	-0.012197109
-2.832691	THE STUDENT	-0.012197109
-2.1820705	THAT BUILDING	-0.012197109
-1.7852566	OR TEARING	-0.012197109
-1.3211776	WHEN BRUNO	-0.012197109
-1.0234702	BRUNO LIGHTED	-0.012197109
-1.3211776	NEW TORCH	-0.012197109
-2.6053057	TO INCREASE	-0.012197109
-2.6484509	OF LIGHT	-0.012197109
-2.7495065	THE LIGHT	-0.012197109
-1.0219198	GOLDEN LIGHT	-0.012197109
-2.305206	HIS REWARD	-0.012197109
-2.832691	THE STAKE	-0.012197109
-2.838029	<s> COUNT	-0.012197109
-1.3211776	YOUR RIGHTS	-0.012197109
-1.0234702	RIGHTS POLITICAL	-0.012197109
-1.0234702	POLITICAL RELIGIOUS	-0.012197109
-1.0234702	RELIGIOUS SOCIAL	-0.012197109
-1.0234702	SOCIAL INTELLECTUAL	-0.012197109
-2.5399885	TO TELL	-0.012197109
-2.4419084	AND TELL	-0.012197109
-1.6786455	TO ME	-0.012197109
-1.8612742	ABOUT ME	-0.012197109
-1.5890964	TOLD ME	-0.012197109
-1.3075022	TELL ME	-0.012197109
-1.0165262	TOOK ME	-0.012197109
-2.2087305	WAS CONQUERED	-0.012197109
-2.4575455	I WISH	-0.012197109
-1.8490032	YOU SOMETHING	-0.012197109
-2.0327275	BUT FIRST	-0.012197109
-2.0354025	BE IMPERSONAL	-0.012197109
-2.832691	THE EPITHETS	-0.012197109
-1.0234702	EPITHETS IRREVERENT	-0.012197109
-1.0234702	IRREVERENT BLASPHEMER	-0.012197109
-1.0234702	BLASPHEMER ATHEIST	-0.012197109
-2.4984758	AND INFIDEL	-0.012197109
-1.7092994	ARE FLUNG	-0.012197109
-1.4939713	FROM PITY	-0.012197109
-1.4939713	FROM ENVY	-0.012197109
-2.337946	NOT HAVING	-0.012197109
-2.832691	THE COURAGE	-0.012197109
-2.832691	THE INDUSTRY	-0.012197109
-1.7852566	OUR NEIGHBOR	-0.012197109
-1.851757	WHO WORKS	-0.012197109
-2.5050042	A BUSY	-0.012197109
-1.0234702	BUSY BEE	-0.012197109
-1.7864573	OF MEN	-0.012197109
-2.4984758	AND BOOKS	-0.012197109
-1.0234702	BOOKS SEARCHING	-0.012197109
-2.832691	THE SWEAT	-0.012197109
-2.305206	HIS BROW	-0.012197109
-2.832691	THE REAL	-0.012197109
-1.0234702	REAL BREAD	-0.012197109
-2.6940975	OF LIFE	-0.012197109
-1.0234702	LIFE WETTING	-0.012197109
-1.3211776	OPEN PAGE	-0.012197109
-1.3211776	TEARS PUSHING	-0.012197109
-2.832691	THE WEE	-0.012197109
-1.0234702	WEE HOURS	-0.012197109
-2.832691	THE NIGHT	-0.012197109
-2.305206	HIS QUEST	-0.012197109
-1.0234702	QUEST ANIMATED	-0.012197109
-2.832691	THE FAIREST	-0.012197109
-1.7120944	ALL LOVES	-0.012197109
-2.832691	THE LOVE	-0.012197109
-2.0991268	WE EASE	-0.012197109
-1.7852566	OUR OWN	-0.012197109
-1.0234702	OWN INDOLENT	-0.012197109
-1.0234702	INDOLENT CONSCIENCE	-0.012197109
-1.9569116	BY CALLING	-0.012197109
-2.002669	HIM NAMES	-0.012197109
-2.4575455	I APPROACHED	-0.012197109
-2.4512875	A CITY	-0.012197109
-2.723391	THE CITY	-0.012197109
-2.4575455	I HEARD	-0.012197109
-1.0234702	HEARD BELLS	-0.012197109
-1.0234702	BELLS RINGING	-0.012197109
-2.5050042	A LITTLE	-0.012197109
-1.0234702	LITTLE LATER	-0.012197109
-2.4575455	I FOUND	-0.012197109
-2.832691	THE STREETS	-0.012197109
-1.0234702	STREETS ASTIR	-0.012197109
-2.1846642	WITH THRONGS	-0.012197109
-2.6940975	OF WELL	-0.012197109
-1.0234702	WELL DRESSED	-0.012197109
-2.443468	IN FAMILY	-0.012197109
-1.0234702	FAMILY GROUPS	-0.012197109
-1.0234702	GROUPS WENDING	-0.012197109
-2.6484509	OF THEIR	-0.012197109
-1.0219198	WENDING THEIR	-0.012197109
-1.0219198	LOVED THEIR	-0.012197109
-1.3211776	WAY HITHER	-0.012197109
-2.4984758	AND THITHER	-0.012197109
-2.838029	<s> LOOKING	-0.012197109
-2.5050042	A GENTLEMAN	-0.012197109
-2.5050042	A NEAT	-0.012197109
-1.0234702	NEAT BLACK	-0.012197109
-1.0234702	BLACK DRESS	-0.012197109
-1.0234702	DRESS SMILING	-0.012197109
-1.7852566	HAND EXTENDED	-0.012197109
-2.1846642	WITH GREAT	-0.012197109
-1.0234702	GREAT CORDIALITY	-0.012197109
-2.189137	HE MUST	-0.012197109
-2.5050042	A STRANGER	-0.012197109
-2.4984758	AND WISHED	-0.012197109
-2.6053057	TO TENDER	-0.012197109
-2.305206	HIS HOSPITALITY	-0.012197109
-2.4575455	I ACCEPTED	-0.012197109
-2.2567043	IT GRATEFULLY	-0.012197109
-2.4575455	I CLASPED	-0.012197109
-2.189137	HE PRESSED	-0.012197109
-1.0234702	PRESSED MINE	-0.012197109
-2.0991268	WE GAZED	-0.012197109
-2.5050042	A MOMENT	-0.012197109
-1.0234702	MOMENT SILENTLY	-0.012197109
-2.2783315	HIS EYES	-0.012197109
-2.087392	MY EYES	-0.012197109
-1.3181059	OTHERS EYES	-0.012197109
-2.6940975	OF COURSE	-0.012197109
-1.7092994	ARE GOING	-0.012197109
-1.7112837	THERE TOO	-0.012197109
-2.1036482	MY FRIENDLY	-0.012197109
-1.1845355	MY GUIDE	-0.012197109
-1.02137	FRIENDLY GUIDE	-0.012197109
-2.7507708	<s> YES	-0.012197109
-1.4877951	GOOD YES	-0.012197109
-2.4575455	I CONDUCT	-0.012197109
-0.32502222	AN IDOL	-0.030279184
-1.5232726	I WHISPERED	-0.012197109
-1.9569116	BY SURPRISE	-0.012197109
-1.6156375	THEY WORSHIPPED	-0.012197109
-2.337946	NOT EXIST	-0.012197109
-2.832691	THE GREEKS	-0.012197109
-1.0234702	GREEKS LOVED	-0.012197109
-2.4575455	I PROTESTED	-0.012197109
-1.1219541	MY HEART	-0.012197109
-1.02137	TAKING HEART	-0.012197109
-1.4939713	HEART CLAMORING	-0.012197109
-2.1036482	MY BREAST	-0.012197109
-2.5050042	A LOW	-0.012197109
-2.2783315	HIS VOICE	-0.012197109
-2.087392	MY VOICE	-0.012197109
-1.0219198	LOW VOICE	-0.012197109
-2.2567043	IT MADE	-0.012197109
-1.0234702	MADE ATHENS	-0.012197109
-2.2567043	IT CREATED	-0.012197109
-2.723391	THE BEAUTIFUL	-0.012197109
-1.4877951	THEIR BEAUTIFUL	-0.012197109
-1.8490032	ONE FAULT	-0.012197109
-1.0234702	FAULT INTERRUPTED	-0.012197109
-2.4575455	I INQUIRED	-0.012197109
-1.0234702	INQUIRED WITHOUT	-0.012197109
-1.0234702	WITHOUT KNOWING	-0.012197109
-2.838029	<s> PRODUCE	-0.012197109
-2.6053057	TO MYSELF	-0.012197109
-1.788031	WHAT BLASPHEMY	-0.012197109
-1.7092994	THEN TAKING	-0.012197109
-1.4939713	THAN ONCE	-0.012197109
-1.4939713	HAD FELT	-0.012197109
-1.0234702	FELT APOLLOS	-0.012197109
-1.0234702	APOLLOS RADIANT	-0.012197109
-2.832691	THE IMMORTAL	-0.012197109
-1.0234702	IMMORTAL LINES	-0.012197109
-2.6484509	OF HOMER	-0.012197109
-1.9918665	HIM HOMER	-0.012197109
-1.0219198	DOUBT HOMER	-0.012197109
-1.973686	FOR APOLLO	-0.012197109
-2.1911402	NO APOLLO	-0.012197109
-1.9036238	AS APOLLO	-0.012197109
-1.5890964	DIVINE APOLLO	-0.012197109
-1.0165262	FORGET APOLLO	-0.012197109
-1.8490032	YOU DOUBT	-0.012197109
-2.832691	THE INSPIRED	-0.012197109
-1.0234702	INSPIRED BARD	-0.012197109
-2.048647	THE SON	-0.05889745
-2.832691	THE AIR	-0.012197109
-2.2087305	WAS HEAVY	-0.012197109
-2.1846642	WITH INCENSE	-0.012197109
-2.443468	IN GORGEOUS	-0.012197109
-1.0234702	GORGEOUS VESTMENTS	-0.012197109
-1.7852566	WERE PASSING	-0.012197109
-2.4984758	AND FRO	-0.012197109
-1.0234702	FRO BOWING	-0.012197109
-2.4984758	AND KNEELING	-0.012197109
-1.3211776	VARIOUS LIGHTS	-0.012197109
-2.4984758	AND IMAGES	-0.012197109
-2.838029	<s> OBSERVING	-0.012197109
-2.1036482	MY ANXIETY	-0.012197109
-2.6053057	TO UNDERSTAND	-0.012197109
-2.832691	THE MEANING	-0.012197109
-1.6156375	GUIDE TOOK	-0.012197109
-1.788031	ME ASIDE	-0.012197109
-2.5050042	A WHISPER	-0.012197109
-1.7852566	WERE CELEBRATING	-0.012197109
-2.832691	THE ANNIVERSARY	-0.012197109
-1.3211776	BEAUTIFUL SAVIOR	-0.012197109
-2.838029	<s> FORGET	-0.012197109
-2.5050042	A SUGGESTION	-0.012197109
-2.6940975	OF SEVERITY	-0.012197109
-1.4939713	SUCH PERSON	-0.012197109
-2.6053057	TO SEARCH	-0.012197109
-1.4939713	NEVER FIND	-0.012197109
-1.8490032	ONE ANSWERING	-0.012197109
-1.7852566	OR DESCRIPTION	-0.012197109
-2.4575455	I WANT	-0.012197109
-2.4575455	I HASTENED	-0.012197109
-1.0234702	HASTENED TURNING	-0.012197109
-1.0234702	TURNING TOWARD	-0.012197109
-1.951817	THIS MORNING	-0.012197109
-2.337946	NOT SPEAK	-0.012197109
-2.305206	HIS WORSHIPPERS	-0.012197109
-2.337946	NOT PERMIT	-0.012197109
-2.6053057	TO CARESS	-0.012197109
-2.6053057	TO CLASP	-0.012197109
-2.6053057	TO INHALE	-0.012197109
-2.832691	THE AMBROSIAL	-0.012197109
-1.0234702	AMBROSIAL FRAGRANCE	-0.012197109
-2.305206	HIS BREATH	-0.012197109
-2.6053057	TO BASK	-0.012197109
-2.832691	THE GOLDEN	-0.012197109
-2.6053057	TO HEAR	-0.012197109
-2.832691	THE MUSIC	-0.012197109
-2.305206	HIS IMMACULATE	-0.012197109
-1.0234702	IMMACULATE ACCENTS	-0.012197109
-1.4939713	EYES FILLED	-0.012197109
-2.1846642	WITH WONDER	-0.012197109
-1.4968089	VOICE QUIVERING	-0.012197109
-2.1846642	WITH EXCITEMENT	-0.012197109
-2.4575455	I VENTURED	-0.012197109
-1.3211776	ASK IMPATIENTLY	-0.012197109
-1.0234702	IMPATIENTLY MAKE	-0.012197109
-1.954531	AS MUCH	-0.012197109

\3-grams:
-0.88261557	A MYTH </s>	0
-0.77597123	GIVEN PHENOMENON </s>	0
-0.9143478	CHILD MIND </s>	0
-1.0935643	ACCOUNTED FOR </s>	0
-1.0550048	THE CHILD </s>	0
-1.0550048	TO KNOW </s>	0
-1.004587	EACH OTHER </s>	0
-0.6061183	OF SCIENCE </s>	0
-0.6061183	CREATE SCIENCE </s>	0
-1.0971293	WAS THAT </s>	0
-0.77597123	THAT REALIZATION </s>	0
-1.0498512	CELSUS ONE </s>	0
-0.77597123	THE HINDOOS </s>	0
-0.9143478	BEEN PUT </s>	0
-1.2724115	OF JESUS </s>	0
-0.77597123	FOR FICTION </s>	0
-1.1444374	ABOUT IT </s>	0
-0.77597123	IT GUESSES </s>	0
-0.9143478	JESUS MOUTH </s>	0
-0.77597123	RESTLESS SPIRIT </s>	0
-0.9143478	AIRY BEINGS </s>	0
-0.675028	THE MOON </s>	0
-0.77597123	OF DISCRETION </s>	0
-0.77597123	HAD MATURED </s>	0
-0.77597123	OF MANKIND </s>	0
-0.39083585	OF HIM </s>	0
-0.4695053	WITH HIM </s>	0
-0.4695053	AGAINST HIM </s>	0
-0.4695053	PRODUCE HIM </s>	0
-0.4695053	TOWARD HIM </s>	0
-0.77597123	BE REASONABLE </s>	0
-0.9723785	THE EVIDENCE </s>	0
-0.77597123	A REALITY </s>	0
-0.9143478	THAT DAY </s>	0
-0.77597123	ABOUT INSPIRATION </s>	0
-0.9723785	ASKED AGAIN </s>	0
-0.9143478	AND MARY </s>	0
-0.77597123	INFANT MESSIAH </s>	0
-0.77597123	GREATER DIFFICULTIES </s>	0
-0.9143478	TO YEAR </s>	0
-0.9723785	OUR GOOD </s>	0
-0.77597123	CHRISTIAN EASTER </s>	0
-0.77597123	IS HIMSELF </s>	0
-0.77597123	WAS MARK </s>	0
-0.77597123	EVER EXISTED </s>	0
-0.9723785	SAW THEM </s>	0
-0.77597123	ALMOST EXCLUSIVELY </s>	0
-1.004587	WAS DIVINE </s>	0
-0.77597123	OUR VOTES </s>	0
-0.9723785	OF FAITH </s>	0
-0.77597123	FIRE HEREAFTER </s>	0
-0.77597123	HIS ATTENTION </s>	0
-0.77597123	NO WRONG </s>	0
-0.9143478	BEEN ANSWERED </s>	0
-0.77597123	HAVE PRODUCED </s>	0
-0.77597123	IMPOSSIBLE PROMISES </s>	0
-1.1374557	HE SAID </s>	0
-0.4694592	A GOD </s>	0
-0.5214517	OF GOD </s>	0
-1.0498512	TOLD YOU </s>	0
-0.77597123	MORAL DEGRADATION </s>	0
-0.9143478	TO OTHERS </s>	0
-0.77597123	OF PLATITUDES </s>	0
-0.77597123	IN FREEDOM </s>	0
-0.9143478	TEARING DOWN </s>	0
-0.675028	NOT TRUE </s>	0
-0.42486906	A PRIEST </s>	0
-0.42486906	THE PRIEST </s>	0
-0.77597123	MORE CONSTRUCTIVE </s>	0
-0.77597123	THE STAKE </s>	0
-0.77597123	YOU SOMETHING </s>	0
-0.77597123	FROM ENVY </s>	0
-0.77597123	HIM NAMES </s>	0
-0.77597123	AND THITHER </s>	0
-0.77597123	GREAT CORDIALITY </s>	0
-0.77597123	PRESSED MINE </s>	0
-0.9723785	OTHERS EYES </s>	0
-1.004587	FRIENDLY GUIDE </s>	0
-0.92416716	AN IDOL </s>	0
-0.77597123	BY SURPRISE </s>	0
-0.77597123	NOT EXIST </s>	0
-0.77597123	MY BREAST </s>	0
-0.42486906	HIS VOICE </s>	0
-0.42486906	LOW VOICE </s>	0
-0.77597123	WHAT BLASPHEMY </s>	0
-0.9723785	DOUBT HOMER </s>	0
-0.5917442	AS APOLLO </s>	0
-0.5917442	DIVINE APOLLO </s>	0
-0.77597123	INSPIRED BARD </s>	0
-0.77597123	AND IMAGES </s>	0
-0.77597123	OR DESCRIPTION </s>	0
-0.77597123	THIS MORNING </s>	0
-0.77597123	IMMACULATE ACCENTS </s>	0
-0.77597123	WITH EXCITEMENT </s>	0
-1.1936363	MYTH IS A	-0.30103
-1.3413752	HE IS A	-0.30103
-1.1936363	HUMANITY IS A	-0.30103
-1.010754	MYTH OF A	-0.30103
-1.010754	EXPLANATION OF A	-0.30103
-1.0772376	DISCUSSION OF A	-0.30103
-1.010754	MORE OF A	-0.30103
-1.010754	PRESENCE OF A	-0.30103
-1.0772376	SON OF A	-0.30103
-1.317488	GAZED FOR A	-0.30103
-1.3689969	RINGING AND A	-0.30103
-1.2280964	FLUNG AT A	-0.30103
-1.0066673	ROME WITH A	-0.30103
-1.0066673	SAID WITH A	-0.30103
-1.195769	IN MAN A	-0.30103
-1.3477085	I WAS A	-0.30103
-0.7945199	AND IN A	-0.30103
-0.7945199	BEEN IN A	-0.30103
-0.7945199	THAN IN A	-0.30103
-0.7945199	DISCREPANCY IN A	-0.30103
-0.7945199	SAID IN A	-0.30103
-0.7945199	GENTLEMAN IN A	-0.30103
-1.3394088	IS JESUS A	-0.30103
-0.8785404	WHICH INTRODUCES A	-0.30103
-1.5246439	AND NOT A	-0.30103
-1.2814964	<s> ONLY A	-0.30103
-1.2510673	MYTH OR A	-0.30103
-1.146723	ALWAYS ON A	-0.30103
-1.0626554	I SAW A	-0.30103
-1.146723	AND SUCH A	-0.30103
-1.1383559	I AM A	-0.30103
-1.0626554	WORKS LIKE A	-0.30103
-0.8785404	NEVER DELIVER A	-0.30103
-0.8785404	BRUNO LIGHTED A	-0.30103
-0.8785404	MADE ATHENS A	-0.30103
-0.8785404	WITH INCENSE A	-0.30103
-1.2085438	<s> A MYTH	-0.30103
-1.2422178	IS A MYTH	-0.30103
-1.2787237	OF A MYTH	-0.30103
-1.1208256	JESUS A MYTH	-0.30103
-2.3084402	<s> THE MYTH	-0.30103
-1.391918	A MYTH IS	-0.30103
-1.2972229	AND THIS IS	-0.30103
-1.3418415	EVERYTHING THAT IS	-0.30103
-1.3098038	BUT WHICH IS	-0.30103
-0.7480618	<s> THERE IS	-0.30103
-0.69600374	BUT THERE IS	-0.30103
-0.69600374	YET THERE IS	-0.30103
-0.6041108	<s> IT IS	-0.30103
-0.63039595	WHILE IT IS	-0.30103
-0.656863	IF IT IS	-0.30103
-0.63039595	FREE IT IS	-0.30103
-0.63039595	DOGMA IT IS	-0.30103
-0.63039595	WORK IT IS	-0.30103
-1.1502542	BUILD UP IS	-0.30103
-0.8804412	THE CRADLE IS	-0.30103
-0.8804412	THE SCHOOL IS	-0.30103
-1.0655631	<s> RELIGION IS	-0.30103
-0.94236344	<s> HE IS	-0.30103
-1.014155	AS HE IS	-0.30103
-0.8804412	YOUR RESPECT IS	-0.30103
-1.0655631	WHOSE WORSHIP IS	-0.30103
-0.8804412	OF HUMANITY IS	-0.30103
-0.8804412	THE CRUCIFIXION IS	-0.30103
-1.2323588	DOCTRINE HOW IS	-0.30103
-0.8804412	HOW ELSE IS	-0.30103
-1.1502542	A FAITH IS	-0.30103
-0.8804412	NOT PRAYER IS	-0.30103
-1.1730181	OR PRIEST IS	-0.30103
-0.8804412	THE STUDENT IS	-0.30103
-1.2487396	NO APOLLO IS	-0.30103
-1.9111248	IS A FANCIFUL	-0.30103
-0.9215082	A FANCIFUL EXPLANATION	-0.30103
-1.0912868	THE MYTH OF	-0.30103
-0.82507247	FANCIFUL EXPLANATION OF	-0.30103
-0.9834071	QUESTIONS BECAUSE OF	-0.30103
-0.9834071	THE MYTHUS OF	-0.30103
-1.1806555	THE SCIENCE OF	-0.30103
-1.1260239	WAS BORN OF	-0.30103
-0.7713926	DECIDE WHICH OF	-0.30103
-0.7713926	ME WHICH OF	-0.30103
-0.7093998	THE MOUTH OF	-0.30103
-0.82507247	THE YEARS OF	-0.30103
-0.82507247	THE WOMB OF	-0.30103
-0.82507247	AND FAITHS OF	-0.30103
-0.82507247	THE BIRTHPLACE OF	-0.30103
-0.28762046	THE DISCUSSION OF	-0.30103
-0.28762046	CANDID DISCUSSION OF	-0.30103
-1.2264593	TOLD HIM OF	-0.30103
-0.82507247	THE HANDS OF	-0.30103
-1.2198848	THE WORLD OF	-0.30103
-0.82507247	WORLD MILLIONS OF	-0.30103
-0.82507247	THE LABOR OF	-0.30103
-0.7093998	A NUMBER OF	-0.30103
-0.626539	THE BIRTHDAY OF	-0.30103
-0.82507247	EVIL DESIGNS OF	-0.30103
-0.82507247	FLIGHT NOR OF	-0.30103
-1.1726599	IS MORE OF	-0.30103
-0.82507247	THE POSITION OF	-0.30103
-0.82507247	THE PHASES OF	-0.30103
-0.82507247	THE ABSENCE OF	-0.30103
-0.82507247	IMMEDIATE COMPANIONS OF	-0.30103
-0.82507247	TAKEN NOTE OF	-0.30103
-0.9834071	THE PRESENCE OF	-0.30103
-0.82507247	THE CONTEMPORARIES OF	-0.30103
-0.82507247	AND HISTORIANS OF	-0.30103
-0.82507247	TAKE NOTICE OF	-0.30103
-0.82507247	THE GOVERNMENT OF	-0.30103
-0.82507247	THE PREACHERS OF	-0.30103
-0.82507247	A MULTITUDE OF	-0.30103
-0.82507247	IS WORTHY OF	-0.30103
-0.43987456	THE LIGHT OF	-0.30103
-0.43987456	GOLDEN LIGHT OF	-0.30103
-0.82507247	THE INDUSTRY OF	-0.30103
-0.82507247	THE SWEAT OF	-0.30103
-0.82507247	REAL BREAD OF	-0.30103
-0.82507247	WEE HOURS OF	-0.30103
-0.82507247	THE FAIREST OF	-0.30103
-0.82507247	THE LOVE OF	-0.30103
-0.9834071	A CITY OF	-0.30103
-0.82507247	WITH THRONGS OF	-0.30103
-0.82507247	IMMORTAL LINES OF	-0.30103
-0.626539	THE SON OF	-0.30103
-0.82507247	THE MEANING OF	-0.30103
-0.82507247	THE ANNIVERSARY OF	-0.30103
-0.82507247	A SUGGESTION OF	-0.30103
-0.82507247	AMBROSIAL FRAGRANCE OF	-0.30103
-0.82507247	THE MUSIC OF	-0.30103
-0.82507247	AS MUCH OF	-0.30103
-2.0939155	OF A GIVEN	-0.30103
-0.9418607	SHOULD BE GIVEN	-0.30103
-1.0183548	WOULD BE GIVEN	-0.30103
-1.2300988	A GIVEN PHENOMENON	-0.30103
-0.9334017	CRADLE IS THE	-0.30103
-0.9334017	SCHOOL IS THE	-0.30103
-0.9334017	RELIGION IS THE	-0.30103
-0.9334017	PRAYER IS THE	-0.30103
-0.67697793	SCIENCE OF THE	-0.30103
-0.7065458	WHICH OF THE	-0.30103
-0.7065458	MOUTH OF THE	-0.30103
-0.67697793	HIM OF THE	-0.30103
-0.67697793	HANDS OF THE	-0.30103
-0.67697793	MILLIONS OF THE	-0.30103
-0.67697793	POSITION OF THE	-0.30103
-0.67697793	PHASES OF THE	-0.30103
-0.67697793	GOVERNMENT OF THE	-0.30103
-0.7065458	LIGHT OF THE	-0.30103
-0.67697793	HOURS OF THE	-0.30103
-0.67697793	ANNIVERSARY OF THE	-0.30103
-0.82577527	OUT FOR THE	-0.30103
-0.82577527	BROW FOR THE	-0.30103
-0.80062014	FOR KNOWLEDGE THE	-0.30103
-1.1080309	NOT TO THE	-0.30103
-1.1080309	APPEAL TO THE	-0.30103
-1.1080309	COME TO THE	-0.30103
-1.0618019	DEVOTION AND THE	-0.30103
-1.0618019	ZODIAC AND THE	-0.30103
-1.0618019	GOD AND THE	-0.30103
-0.94282264	JOSEPH WITH THE	-0.30103
-0.94282264	TAKEN WITH THE	-0.30103
-0.94282264	SEARCHING WITH THE	-0.30103
-0.9486192	THIS MYTHUS THE	-0.30103
-1.3233533	HE WAS THE	-0.30103
-0.93487304	FRIDAY THAT THE	-0.30103
-0.93487304	SAID THAT THE	-0.30103
-0.93487304	ME THAT THE	-0.30103
-0.61609834	<s> IN THE	-0.30103
-0.61609834	ENTIRELY IN THE	-0.30103
-0.61609834	BUT IN THE	-0.30103
-0.61609834	SUN IN THE	-0.30103
-0.61609834	MISERY IN THE	-0.30103
-0.61609834	TONIC IN THE	-0.30103
-0.61609834	BEE IN THE	-0.30103
-0.61609834	BASK IN THE	-0.30103
-0.5880027	OBSERVED BY THE	-0.30103
-0.5880027	MAINTAINED BY THE	-0.30103
-0.5880027	YOU BY THE	-0.30103
-0.5880027	ANIMATED BY THE	-0.30103
-0.28348434	INFORMATION CONCERNING THE	-0.30103
-0.28348434	HOMER CONCERNING THE	-0.30103
-0.80062014	IS PRECISELY THE	-0.30103
-0.78986025	IN WHICH THE	-0.30103
-0.7542892	SAME WHICH THE	-0.30103
-0.7963996	OF JESUS THE	-0.30103
-0.8885039	SAVIOR JESUS THE	-0.30103
-1.1923172	TO IT THE	-0.30103
-0.6049208	BIT INTO THE	-0.30103
-0.6049208	PUSHING INTO THE	-0.30103
-0.80062014	WE FILL THE	-0.30103
-0.9486192	HAND OVER THE	-0.30103
-0.80062014	WE COVET THE	-0.30103
-1.0056298	TO TOUCH THE	-0.30103
-0.80062014	HAVE REACHED THE	-0.30103
-0.6384689	OF ALL THE	-0.30103
-0.6049208	IN ALL THE	-0.30103
-0.77549183	TIMES AS THE	-0.30103
-0.77549183	EQUINOX AS THE	-0.30103
-0.80062014	ONLY COSTING THE	-0.30103
-1.2832749	<s> BUT THE	-0.30103
-0.80062014	HIS SERVICE THE	-0.30103
-0.9486192	THE TIME THE	-0.30103
-0.80062014	THE ENERGIES THE	-0.30103
-0.80062014	THE AFFECTION THE	-0.30103
-1.0857108	COURAGE OR THE	-0.30103
-0.9486192	CAN NUMBER THE	-0.30103
-1.0056298	<s> YET THE	-0.30103
-1.0117779	BE ON THE	-0.30103
-1.0117779	EXPLAIN WHY THE	-0.30103
-0.80062014	TO ESCAPE THE	-0.30103
-0.80062014	TO KILL THE	-0.30103
-0.80062014	IS COMMEMORATED THE	-0.30103
-0.4325491	NOT BEFORE THE	-0.30103
-0.4325491	KNEELING BEFORE THE	-0.30103
-0.80062014	SOON AFTER THE	-0.30103
-0.80062014	THUS MAKING THE	-0.30103
-0.9486192	DEPEND UPON THE	-0.30103
-0.80062014	HAS BECOME THE	-0.30103
-0.80062014	ORIGIN OFFERS THE	-0.30103
-1.0117779	ARGUMENTS AGAINST THE	-0.30103
-0.9486192	WE SEE THE	-0.30103
-0.80062014	JUDAS OCCUPY THE	-0.30103
-0.80062014	IS POSSIBLE THE	-0.30103
-0.9486192	SUBJECT LIKE THE	-0.30103
-0.9486192	THE TRUE THE	-0.30103
-0.80062014	JAIL GAGGING THE	-0.30103
-0.80062014	TO INCREASE THE	-0.30103
-0.80062014	HIS REWARD THE	-0.30103
-0.80062014	BE IMPERSONAL THE	-0.30103
-0.80062014	NOT HAVING THE	-0.30103
-0.80062014	LIFE WETTING THE	-0.30103
-0.80062014	ALL LOVES THE	-0.30103
-0.80062014	I APPROACHED THE	-0.30103
-0.80062014	I FOUND THE	-0.30103
-0.80062014	I CONDUCT THE	-0.30103
-0.80062014	IT CREATED THE	-0.30103
-0.9486192	THE BEAUTIFUL THE	-0.30103
-1.0117779	HIM HOMER THE	-0.30103
-0.80062014	TO UNDERSTAND THE	-0.30103
-0.80062014	WERE CELEBRATING THE	-0.30103
-0.80062014	TO INHALE THE	-0.30103
-0.80062014	TO HEAR THE	-0.30103
-2.3084402	<s> THE MIND	-0.30103
-1.3887576	THE CHILD MIND	-0.30103
-1.1301488	THE MIND CRAVES	-0.30103
-0.90392405	MIND CRAVES FOR	-0.30103
-0.90392405	A FACULTY FOR	-0.30103
-1.4307718	THOUGHT IT FOR	-0.30103
-0.90392405	REACH OUT FOR	-0.30103
-0.90392405	BE ACCOUNTED FOR	-0.30103
-0.90392405	NUMEROUS CANDIDATES FOR	-0.30103
-1.1950331	WE ASKED FOR	-0.30103
-0.90392405	WAS CONQUERED FOR	-0.30103
-0.90392405	HIS BROW FOR	-0.30103
-0.90392405	WE GAZED FOR	-0.30103
-0.90392405	TO SEARCH FOR	-0.30103
-1.4358541	CRAVES FOR KNOWLEDGE	-0.30103
-2.0041137	OF THE CHILD	-0.30103
-1.4523232	KNOWLEDGE THE CHILD	-0.30103
-1.7739347	TO THE CHILD	-0.30103
-1.3935306	THE CHILD ASKS	-0.30103
-0.9215082	CHILD ASKS QUESTIONS	-0.30103
-2.1168807	IT IS BECAUSE	-0.30103
-0.91989255	ASKS QUESTIONS BECAUSE	-0.30103
-1.3509129	BECAUSE OF AN	-0.30103
-1.3509129	MUCH OF AN	-0.30103
-1.8455579	HE WAS AN	-0.30103
-1.8217448	IS NOT AN	-0.30103
-1.3698267	WAS ONLY AN	-0.30103
-1.530454	OF AN INBORN	-0.30103
-0.91989255	AN INBORN DESIRE	-0.30103
-1.445153	BEINGS WE DESIRE	-0.30103
-1.2557626	RESPECT IS TO	-0.30103
-0.2887301	INBORN DESIRE TO	-0.30103
-0.2887301	WE DESIRE TO	-0.30103
-0.83183247	CLOSE ENOUGH TO	-0.30103
-1.233572	PROMISE WAS TO	-0.30103
-1.2181348	SAYS THAT TO	-0.30103
-0.83183247	THE USE TO	-0.30103
-1.2012706	ARE WE TO	-0.30103
-0.99317455	DIVINE FEET TO	-0.30103
-1.2390767	MATURE NOT TO	-0.30103
-0.83183247	REALLY BEGIN TO	-0.30103
-0.83183247	I APPEAL TO	-0.30103
-1.2391305	TOUCH HIM TO	-0.30103
-1.2871438	NOT ONLY TO	-0.30103
-0.99317455	BUT ALSO TO	-0.30103
-0.83183247	ALSO DRAWING TO	-0.30103
-1.1480407	YOU WERE TO	-0.30103
-0.2887301	AND APPEAR TO	-0.30103
-0.2887301	JESUS APPEAR TO	-0.30103
-0.83183247	HISTORICAL DOCUMENT TO	-0.30103
-0.83183247	HERODS INTENTION TO	-0.30103
-0.83183247	WE COME TO	-0.30103
-0.99317455	FROM YEAR TO	-0.30103
-0.83183247	THE CALCULATION TO	-0.30103
-1.1298207	WE ARE TO	-0.30103
-0.83183247	HE SEEMS TO	-0.30103
-0.83183247	WHY OBJECT TO	-0.30103
-0.83183247	TO ADDING TO	-0.30103
-1.2785858	HIS HAND TO	-0.30103
-0.83183247	EVER WENT TO	-0.30103
-1.0637408	PERMIT THEM TO	-0.30103
-1.0637408	IS IMPOSSIBLE TO	-0.30103
-0.83183247	UNANIMOUS SILENCE TO	-0.30103
-1.0568174	THE UNIVERSE TO	-0.30103
-0.83183247	HAVE PETITIONS TO	-0.30103
-0.9030287	I SAID TO	-0.30103
-1.1038486	THAT TRUTH TO	-0.30103
-0.83183247	FREE EXPRESSION TO	-0.30103
-0.83183247	NEW TORCH TO	-0.30103
-0.83183247	I WISH TO	-0.30103
-0.83183247	HAND EXTENDED TO	-0.30103
-0.83183247	AND WISHED TO	-0.30103
-0.83183247	HIS HOSPITALITY TO	-0.30103
-1.0637408	HIS EYES TO	-0.30103
-1.0568174	I WHISPERED TO	-0.30103
-0.83183247	WERE PASSING TO	-0.30103
-0.83183247	MY ANXIETY TO	-0.30103
-0.83183247	ONE ANSWERING TO	-0.30103
-0.83183247	I WANT TO	-0.30103
-0.83183247	NOT SPEAK TO	-0.30103
-0.83183247	HIS BREATH TO	-0.30103
-0.83183247	I VENTURED TO	-0.30103
-0.8417776	DESIRE TO KNOW	-0.30103
-1.330032	ONLY TO KNOW	-0.30103
-0.91989255	THE SWORD NOW	-0.30103
-1.3315741	PASSING TO AND	-0.30103
-0.29291672	<s> NOW AND	-0.30103
-0.29291672	SWORD NOW AND	-0.30103
-1.1837783	IDOL THEN AND	-0.30103
-1.3159132	DO IT AND	-0.30103
-0.85816324	ITS PACE AND	-0.30103
-1.2476398	SPACE ABOUT AND	-0.30103
-1.0318933	THE FAIRIES AND	-0.30103
-1.1544836	FAIRIES GODS AND	-0.30103
-0.85816324	OTHER INVISIBLE AND	-0.30103
-0.85816324	GODS MOUTHPIECE AND	-0.30103
-0.85816324	THE DEVOTION AND	-0.30103
-0.85816324	NO DATE AND	-0.30103
-1.0318933	HEROD MARY AND	-0.30103
-1.0318933	GIVE FULL AND	-0.30103
-0.85816324	THE ZODIAC AND	-0.30103
-1.0318933	PETER JUDAS AND	-0.30103
-0.85816324	THE AUTHORS AND	-0.30103
-0.85816324	MANY WORDS AND	-0.30103
-1.3486397	A GOD AND	-0.30103
-0.85816324	SELF EFFORT AND	-0.30103
-0.85816324	SLAVERY POVERTY AND	-0.30103
-1.1019752	THE OPEN AND	-0.30103
-0.85816324	SOCIAL INTELLECTUAL AND	-0.30103
-0.85816324	BLASPHEMER ATHEIST AND	-0.30103
-1.1019752	OF MEN AND	-0.30103
-0.85816324	BELLS RINGING AND	-0.30103
-0.85816324	WAY HITHER AND	-0.30103
-0.85816324	DRESS SMILING AND	-0.30103
-0.85816324	A STRANGER AND	-0.30103
-1.1949227	MY HEART AND	-0.30103
-0.85816324	FRO BOWING AND	-0.30103
-0.85816324	VARIOUS LIGHTS AND	-0.30103
-0.85816324	ME ASIDE AND	-0.30103
-0.85816324	WITH WONDER AND	-0.30103
-1.7361333	NOW AND THEN	-0.30103
-1.4495821	NOT THAT THEN	-0.30103
-1.5271683	<s> HOW THEN	-0.30103
-1.5292709	AN IDOL THEN	-0.30103
-1.3224816	AND THEN THEY	-0.30103
-1.6754528	EVIDENCE THAT THEY	-0.30103
-1.2234584	<s> COULD THEY	-0.30103
-1.2902753	THEN THEY CAME	-0.30103
-0.9215082	THEY CAME CLOSE	-0.30103
-0.9215082	CAME CLOSE ENOUGH	-0.30103
-1.521335	ENOUGH TO SNAP	-0.30103
-1.492052	WORDS AND AT	-0.30103
-0.91615945	TO SNAP AT	-0.30103
-0.91615945	CHRISTIAN CHURCH AT	-0.30103
-0.91615945	ANY MYTHOLOGY AT	-0.30103
-0.91615945	ARE FLUNG AT	-0.30103
-1.3267046	SNAP AT EACH	-0.30103
-1.3285396	SILENTLY INTO EACH	-0.30103
-1.7847921	NUMBER OF OTHER	-0.30103
-1.5235415	ON THE OTHER	-0.30103
-1.4996046	GODS AND OTHER	-0.30103
-1.1248652	AT EACH OTHER	-0.30103
-1.1758112	OVER US WITH	-0.30103
-0.8939848	MAY DISAGREE WITH	-0.30103
-1.3650286	BEFORE HIM WITH	-0.30103
-0.8939848	AND JOSEPH WITH	-0.30103
-0.8939848	WE MEET WITH	-0.30103
-0.8939848	TO ROME WITH	-0.30103
-1.1758112	BE TAKEN WITH	-0.30103
-1.1668704	HIS ANSWER WITH	-0.30103
-1.4813251	HE SAID WITH	-0.30103
-1.4388795	TO ME WITH	-0.30103
-0.8939848	BOOKS SEARCHING WITH	-0.30103
-0.8939848	STREETS ASTIR WITH	-0.30103
-0.8939848	WAS HEAVY WITH	-0.30103
-0.8939848	EYES FILLED WITH	-0.30103
-0.8939848	VOICE QUIVERING WITH	-0.30103
-1.4626536	ELSE IS THIS	-0.30103
-1.7369653	DISCUSSION OF THIS	-0.30103
-1.7968296	<s> AND THIS	-0.30103
-1.4260218	<s> WITH THIS	-0.30103
-1.5332627	NOTHING ABOUT THIS	-0.30103
-1.5052838	OF ALL THIS	-0.30103
-0.9079643	KNOW WHETHER THIS	-0.30103
-1.2029666	<s> WHY THIS	-0.30103
-1.1084576	BE HERE THIS	-0.30103
-1.5297006	IT THE MYTHUS	-0.30103
-1.408884	WITH THIS MYTHUS	-0.30103
-1.5357575	MYTHUS THE PRIMITIVE	-0.30103
-1.5010486	AT A MAN	-0.30103
-0.9182326	THE PRIMITIVE MAN	-0.30103
-1.2234584	BORN UNTIL MAN	-0.30103
-1.4978465	IS IN MAN	-0.30103
-1.2502316	PRIMITIVE MAN WAS	-0.30103
-0.6582682	<s> SCIENCE WAS	-0.30103
-0.6582682	INADEQUACY SCIENCE WAS	-0.30103
-1.4307718	BE IT WAS	-0.30103
-1.1020643	OUR RELIGION WAS	-0.30103
-1.4506688	REALIZED I WAS	-0.30103
-0.9929146	<s> HE WAS	-0.30103
-1.0802339	THAT HE WAS	-0.30103
-1.0802339	PERSON HE WAS	-0.30103
-0.8145399	<s> WHO WAS	-0.30103
-0.7769764	MATTHEW WHO WAS	-0.30103
-1.1950331	OF THEM WAS	-0.30103
-1.1020643	THE PROMISE WAS	-0.30103
-0.7225914	WORLD WHAT WAS	-0.30103
-0.7225914	GUIDE WHAT WAS	-0.30103
-0.90392405	THE AIR WAS	-0.30103
-1.4722812	MAN WAS SATISFIED	-0.30103
-0.92031574	WAS SATISFIED UNTIL	-0.30103
-1.2276754	NOT BORN UNTIL	-0.30103
-0.92031574	FIRM GROUND UNTIL	-0.30103
-1.104813	HISTORIANS OF HIS	-0.30103
-1.1890266	LIGHT OF HIS	-0.30103
-1.104813	SWEAT OF HIS	-0.30103
-1.104813	FRAGRANCE OF HIS	-0.30103
-1.104813	MUSIC OF HIS	-0.30103
-1.2913074	DRAWING TO HIS	-0.30103
-1.2913074	ANSWERING TO HIS	-0.30103
-1.2913074	SPEAK TO HIS	-0.30103
-1.4166358	SMILING AND HIS	-0.30103
-1.3854539	HIM WITH HIS	-0.30103
-1.5701742	WHAT WAS HIS	-0.30103
-1.1758112	SATISFIED UNTIL HIS	-0.30103
-1.4408095	SEVERITY IN HIS	-0.30103
-1.086481	PRESS UPON HIS	-0.30103
-0.8939848	COULD KEEP HIS	-0.30103
-0.8939848	HE PARRIED HIS	-0.30103
-1.2988752	KNOWING WHAT HIS	-0.30103
-0.8939848	THE NIGHT HIS	-0.30103
-0.8939848	TO TENDER HIS	-0.30103
-0.8939848	I CLASPED HIS	-0.30103
-0.8939848	TO CARESS HIS	-0.30103
-0.8939848	TO CLASP HIS	-0.30103
-1.4879941	UNTIL HIS DEVELOPING	-0.30103
-0.9215082	HIS DEVELOPING INTELLIGENCE	-0.30103
-0.91989255	DEVELOPING INTELLIGENCE REALIZED	-0.30103
-1.4101149	MUST HAVE REALIZED	-0.30103
-1.1282225	INTELLIGENCE REALIZED ITS	-0.30103
-0.92031574	IMAGINATION CURBING ITS	-0.30103
-0.92031574	AND SUBDUING ITS	-0.30103
-1.2300988	REALIZED ITS INADEQUACY	-0.30103
-1.5136685	BIRTHPLACE OF SCIENCE	-0.30103
-2.012659	IS THE SCIENCE	-0.30103
-0.91615945	ITS INADEQUACY SCIENCE	-0.30103
-0.91615945	PEOPLE CREATE SCIENCE	-0.30103
-1.1533484	SCIENCE WAS BORN	-0.30103
-1.1984088	HE WAS BORN	-0.30103
-1.7275329	WAS NOT BORN	-0.30103
-1.4255047	STUDENT IS THAT	-0.30103
-1.4626253	BORN OF THAT	-0.30103
-1.5786358	WHAT WAS THAT	-0.30103
-1.4093935	IS IT THAT	-0.30103
-1.232735	WORSHIPPED GODS THAT	-0.30103
-1.4100543	WOULD NOT THAT	-0.30103
-0.79225385	NO EVIDENCE THAT	-0.30103
-1.1795881	BORN ON THAT	-0.30103
-1.0895532	MATTHEW SAYS THAT	-0.30103
-1.0895532	A FRIDAY THAT	-0.30103
-1.2933047	LENGTH SAID THAT	-0.30103
-0.8959545	THE PROVISION THAT	-0.30103
-0.8959545	TO COMMUNICATE THAT	-0.30103
-0.8959545	IN EVERYTHING THAT	-0.30103
-1.3031726	TOLD ME THAT	-0.30103
-1.4674039	OF THAT REALIZATION	-0.30103
-2.0221221	OF A ONE	-0.30103
-1.5084641	LIKE THE ONE	-0.30103
-1.4620491	AND NO ONE	-0.30103
-0.821777	THE ONLY ONE	-0.30103
-0.7836093	HAD ONLY ONE	-0.30103
-0.9140961	SCEPTICAL CELSUS ONE	-0.30103
-1.1182276	FIND ANY ONE	-0.30103
-1.3823717	A ONE EYED	-0.30103
-1.9396241	THAT THE PEOPLE	-0.30103
-0.9182326	ONE EYED PEOPLE	-0.30103
-1.2234584	GROWN UP PEOPLE	-0.30103
-0.9182326	WELL DRESSED PEOPLE	-0.30103
-1.2902753	EYED PEOPLE LIVING	-0.30103
-1.6601213	THERE IS IN	-0.30103
-1.3416752	ASIDE AND IN	-0.30103
-1.2455912	THE ONE IN	-0.30103
-1.1765151	DRESSED PEOPLE IN	-0.30103
-0.86915934	PEOPLE LIVING IN	-0.30103
-1.27774	HAVE BEEN IN	-0.30103
-1.048402	ARE PUT IN	-0.30103
-1.1294851	HAND THAN IN	-0.30103
-0.86915934	OURSELVES ENTIRELY IN	-0.30103
-1.537887	<s> BUT IN	-0.30103
-0.86915934	THIS DISCREPANCY IN	-0.30103
-0.86915934	THE WEEK IN	-0.30103
-0.86915934	THE SUN IN	-0.30103
-1.048402	RADIANT PRESENCE IN	-0.30103
-1.1294851	MY FAITH IN	-0.30103
-0.86915934	NO MISERY IN	-0.30103
-1.4157276	I SAID IN	-0.30103
-0.86915934	ASK ANYTHING IN	-0.30103
-0.86915934	MORAL TONIC IN	-0.30103
-0.86915934	A LECTURE IN	-0.30103
-0.29460272	NOT BELIEVE IN	-0.30103
-0.29460272	I BELIEVE IN	-0.30103
-0.86915934	BUSY BEE IN	-0.30103
-1.1214405	OF MEN IN	-0.30103
-0.86915934	A GENTLEMAN IN	-0.30103
-0.86915934	HEART CLAMORING IN	-0.30103
-1.2271899	FOR APOLLO IN	-0.30103
-0.86915934	OF SEVERITY IN	-0.30103
-0.86915934	TO BASK IN	-0.30103
-1.5058967	LIVING IN INDIA	-0.30103
-0.92031574	IN INDIA HAS	-0.30103
-0.92031574	PAGAN OESTERA HAS	-0.30103
-0.92031574	NO HISTORIAN HAS	-0.30103
-1.2276754	INDIA HAS BEEN	-0.30103
-0.8754523	THEY HAVE BEEN	-0.30103
-0.8754523	MYTHS HAVE BEEN	-0.30103
-0.92031574	THESE PRAYERS BEEN	-0.30103
-1.2902753	HAS BEEN REPLACED	-0.30103
-1.6865388	NOW AND BY	-0.30103
-0.9079643	BEEN REPLACED BY	-0.30103
-0.9079643	WERE OBSERVED BY	-0.30103
-1.2029666	WHISPERED TAKEN BY	-0.30103
-0.9079643	ALWAYS MAINTAINED BY	-0.30103
-0.9079643	DISAPPOINTMENTS CAUSED BY	-0.30103
-1.3443319	FOR YOU BY	-0.30103
-0.9079643	QUEST ANIMATED BY	-0.30103
-0.9079643	INDOLENT CONSCIENCE BY	-0.30103
-1.4153141	REPLACED BY ACCURATE	-0.30103
-0.9215082	BY ACCURATE INFORMATION	-0.30103
-0.91989255	ACCURATE INFORMATION CONCERNING	-0.30103
-1.2268171	OF HOMER CONCERNING	-0.30103
-1.8159806	CONCERNING THE HINDOOS	-0.30103
-1.5073469	THIS IS PRECISELY	-0.30103
-1.5357575	PRECISELY THE USE	-0.30103
-1.4891634	USE TO WHICH	-0.30103
-1.2130888	WEEK IN WHICH	-0.30103
-1.2130888	LECTURE IN WHICH	-0.30103
-0.91204256	IS REFLECTION WHICH	-0.30103
-1.4050397	MONEY BUT WHICH	-0.30103
-0.91204256	TO DECIDE WHICH	-0.30103
-0.91204256	THE SAME WHICH	-0.30103
-1.3391731	TELL ME WHICH	-0.30103
-1.4014792	TO WHICH MYTHS	-0.30103
-1.4758012	ARE TO HAVE	-0.30103
-1.2592516	COULD THEY HAVE	-0.30103
-0.9079643	WHICH MYTHS HAVE	-0.30103
-1.406401	UNTIL WE HAVE	-0.30103
-1.3496794	COURTIERS WHO HAVE	-0.30103
-1.328157	I WOULD HAVE	-0.30103
-0.9079643	EXTRAVAGANT CLAIMS HAVE	-0.30103
-0.9079643	HE MUST HAVE	-0.30103
-1.4218986	HAVE BEEN PUT	-0.30103
-1.3267046	UTTERANCES ARE PUT	-0.30103
-1.4499143	<s> IS JESUS	-0.30103
-1.2167606	MYTHUS OF JESUS	-0.30103
-1.3291976	BIRTHDAY OF JESUS	-0.30103
-1.2167606	COMPANIONS OF JESUS	-0.30103
-1.2167606	CONTEMPORARIES OF JESUS	-0.30103
-1.361425	WHETHER THIS JESUS	-0.30103
-1.4636718	PUT IN JESUS	-0.30103
-0.8227597	CHAPTERS ABOUT JESUS	-0.30103
-0.8227597	TRUTH ABOUT JESUS	-0.30103
-1.185692	THE INFANT JESUS	-0.30103
-1.3668616	MOREOVER IF JESUS	-0.30103
-1.1020643	A MYTHICAL JESUS	-0.30103
-1.1020643	TO SEE JESUS	-0.30103
-0.90392405	BEAUTIFUL SAVIOR JESUS	-0.30103
-0.90392405	IMPATIENTLY MAKE JESUS	-0.30103
-1.8205153	<s> BUT THERE	-0.30103
-1.2094105	<s> YET THERE	-0.30103
-1.1215338	HIS PROMISE THERE	-0.30103
-0.91615945	ARE GOING THERE	-0.30103
-1.512386	MAN A FACULTY	-0.30103
-1.4358541	FACULTY FOR FICTION	-0.30103
-1.4255047	HOW IS IT	-0.30103
-1.4380176	ADDING TO IT	-0.30103
-1.1795881	LESS THAN IT	-0.30103
-1.3350655	IGNORANT ABOUT IT	-0.30103
-1.2759757	WILL DO IT	-0.30103
-1.6040441	WOULD BE IT	-0.30103
-0.8959545	<s> WHILE IT	-0.30103
-0.8554822	KNOW IF IT	-0.30103
-0.8554822	AND IF IT	-0.30103
-1.0895532	NEVER FREE IT	-0.30103
-0.8959545	GOD THOUGHT IT	-0.30103
-0.8959545	IN DOGMA IT	-0.30103
-0.8959545	MY WORK IT	-0.30103
-1.1948719	OF LIGHT IT	-0.30103
-0.8959545	I ACCEPTED IT	-0.30103
-1.9704865	<s> IT THINKS	-0.30103
-0.9215082	IT THINKS LESS	-0.30103
-0.92031574	THINKS LESS THAN	-0.30103
-1.287493	HOW MORE THAN	-0.30103
-1.3568859	IN HAND THAN	-0.30103
-1.4804597	THAN IT GUESSES	-0.30103
-2.139334	IT IS REFLECTION	-0.30103
-1.4014792	REFLECTION WHICH INTRODUCES	-0.30103
-1.512386	INTRODUCES A BIT	-0.30103
-0.91615945	A BIT INTO	-0.30103
-0.91615945	JESUS FLED INTO	-0.30103
-1.2778736	CLAPPING TRUTH INTO	-0.30103
-0.91615945	TEARS PUSHING INTO	-0.30103
-0.91615945	MOMENT SILENTLY INTO	-0.30103
-1.6392395	INTO THE MOUTH	-0.30103
-1.4342005	GAGGING THE MOUTH	-0.30103
-1.453021	IN JESUS MOUTH	-0.30103
-1.8009684	MOUTH OF IMAGINATION	-0.30103
-0.9215082	OF IMAGINATION CURBING	-0.30103
-1.2300988	CURBING ITS PACE	-0.30103
-1.5117359	PACE AND SUBDUING	-0.30103
-1.2300988	SUBDUING ITS RESTLESS	-0.30103
-0.9215082	ITS RESTLESS SPIRIT	-0.30103
-1.1950331	GROUND UNTIL WE	-0.30103
-1.5962224	ABOUT JESUS WE	-0.30103
-1.1020643	INTELLIGENT BEINGS WE	-0.30103
-0.90392405	THE RAINBOW WE	-0.30103
-1.1950331	HERE AGAIN WE	-0.30103
-1.185692	<s> WHEN WE	-0.30103
-1.6537113	<s> IF WE	-0.30103
-1.2870663	THEN ARE WE	-0.30103
-1.3208	THAT WHAT WE	-0.30103
-1.2502316	OF TRUTH WE	-0.30103
-1.7703123	<s> WE FILL	-0.30103
-1.5357575	FILL THE SPACE	-0.30103
-0.91204256	THE SPACE ABOUT	-0.30103
-0.91204256	REALLY IGNORANT ABOUT	-0.30103
-0.3008414	SAY NOTHING ABOUT	-0.30103
-0.3008414	SAYS NOTHING ABOUT	-0.30103
-0.91204256	IMPORTANT CHAPTERS ABOUT	-0.30103
-1.2684628	WHOLE TRUTH ABOUT	-0.30103
-0.91204256	ANOTHER CRITICISM ABOUT	-0.30103
-0.91204256	<s> LOOKING ABOUT	-0.30103
-1.5057213	ABOUT AND OVER	-0.30103
-1.3557304	VIRTUALLY HAND OVER	-0.30103
-1.1275396	AND OVER US	-0.30103
-0.3019273	<s> LET US	-0.30103
-0.3019273	FIRST LET US	-0.30103
-1.4678892	US WITH SPIRITS	-0.30103
-1.8045055	ALL THE FAIRIES	-0.30103
-0.91989255	WITH SPIRITS FAIRIES	-0.30103
-1.8717623	HE IS GODS	-0.30103
-1.1248652	SPIRITS FAIRIES GODS	-0.30103
-1.2234584	LOVED THEIR GODS	-0.30103
-0.9182326	THEY WORSHIPPED GODS	-0.30103
-1.2902753	AND OTHER INVISIBLE	-0.30103
-1.5117359	INVISIBLE AND AIRY	-0.30103
-0.91989255	AND AIRY BEINGS	-0.30103
-0.91989255	AS INTELLIGENT BEINGS	-0.30103
-1.7703123	<s> WE COVET	-0.30103
-1.5357575	COVET THE RAINBOW	-0.30103
-1.4505919	RAINBOW WE REACH	-0.30103
-0.9215082	WE REACH OUT	-0.30103
-1.94273	OF THE MOON	-0.30103
-1.6392395	FOR THE MOON	-0.30103
-1.1275396	THE FULL MOON	-0.30103
-1.5082858	INDUSTRY OF OUR	-0.30103
-1.3271062	BE GIVEN OUR	-0.30103
-1.4138969	IT FOR OUR	-0.30103
-0.9140961	WE EASE OUR	-0.30103
-1.1182276	GOOD YES OUR	-0.30103
-1.3557304	<s> OUR FEET	-0.30103
-1.286508	HIS DIVINE FEET	-0.30103
-1.1215338	OUR FEET DO	-0.30103
-1.2355316	WHICH I DO	-0.30103
-1.2355316	IF I DO	-0.30103
-1.1215338	HIS TIME DO	-0.30103
-1.1215338	I WILL DO	-0.30103
-1.4653277	IT IS NOT	-0.30103
-1.2299016	WORSHIP IS NOT	-0.30103
-1.2299016	APOLLO IS NOT	-0.30103
-1.2249876	THEN AND NOT	-0.30103
-1.2249876	EFFORT AND NOT	-0.30103
-1.2370435	A MAN NOT	-0.30103
-1.1200099	SCIENCE WAS NOT	-0.30103
-1.0471926	IT WAS NOT	-0.30103
-0.7059571	FEET DO NOT	-0.30103
-0.55487096	I DO NOT	-0.30103
-0.7059571	TIME DO NOT	-0.30103
-0.8979332	THE MATURE NOT	-0.30103
-1.0336164	WILL HE NOT	-0.30103
-1.0336164	DID HE NOT	-0.30103
-1.2982616	IT WERE NOT	-0.30103
-0.8979332	FRIDAY FALLS NOT	-0.30103
-1.3048149	<s> WOULD NOT	-0.30103
-1.0926473	THAT DID NOT	-0.30103
-0.8979332	AM DETERMINED NOT	-0.30103
-0.8979332	BUT DOES NOT	-0.30103
-1.9279923	DO NOT REALLY	-0.30103
